{"learner":{"attributes":{"scikit_learn":"{\"_estimator_type\": \"regressor\"}"},"feature_names":[],"feature_types":[],"gradient_booster":{"model":{"gbtree_model_param":{"num_parallel_tree":"1","num_trees":"1000"},"iteration_indptr":[0,1,2,3,4,5,6,7,8,9,10,11,12,13,14,15,16,17,18,19,20,21,22,23,24,25,26,27,28,29,30,31,32,33,34,35,36,37,38,39,40,41,42,43,44,45,46,47,48,49,50,51,52,53,54,55,56,57,58,59,60,61,62,63,64,65,66,67,68,69,70,71,72,73,74,75,76,77,78,79,80,81,82,83,84,85,86,87,88,89,90,91,92,93,94,95,96,97,98,99,100,101,102,103,104,105,106,107,108,109,110,111,112,113,114,115,116,117,118,119,120,121,122,123,124,125,126,127,128,129,130,131,132,133,134,135,136,137,138,139,140,141,142,143,144,145,146,147,148,149,150,151,152,153,154,155,156,157,158,159,160,161,162,163,164,165,166,167,168,169,170,171,172,173,174,175,176,177,178,179,180,181,182,183,184,185,186,187,188,189,190,191,192,193,194,195,196,197,198,199,200,201,202,203,204,205,206,207,208,209,210,211,212,213,214,215,216,217,218,219,220,221,222,223,224,225,226,227,228,229,230,231,232,233,234,235,236,237,238,239,240,241,242,243,244,245,246,247,248,249,250,251,252,253,254,255,256,257,258,259,260,261,262,263,264,265,266,267,268,269,270,271,272,273,274,275,276,277,278,279,280,281,282,283,284,285,286,287,288,289,290,291,292,293,294,295,296,297,298,299,300,301,302,303,304,305,306,307,308,309,310,311,312,313,314,315,316,317,318,319,320,321,322,323,324,325,326,327,328,329,330,331,332,333,334,335,336,337,338,339,340,341,342,343,344,345,346,347,348,349,350,351,352,353,354,355,356,357,358,359,360,361,362,363,364,365,366,367,368,369,370,371,372,373,374,375,376,377,378,379,380,381,382,383,384,385,386,387,388,389,390,391,392,393,394,395,396,397,398,399,400,401,402,403,404,405,406,407,408,409,410,411,412,413,414,415,416,417,418,419,420,421,422,423,424,425,426,427,428,429,430,431,432,433,434,435,436,437,438,439,440,441,442,443,444,445,446,447,448,449,450,451,452,453,454,455,456,457,458,459,460,461,462,463,464,465,466,467,468,469,470,471,472,473,474,475,476,477,478,479,480,481,482,483,484,485,486,487,488,489,490,491,492,493,494,495,496,497,498,499,500,501,502,503,504,505,506,507,508,509,510,511,512,513,514,515,516,517,518,519,520,521,522,523,524,525,526,527,528,529,530,531,532,533,534,535,536,537,538,539,540,541,542,543,544,545,546,547,548,549,550,551,552,553,554,555,556,557,558,559,560,561,562,563,564,565,566,567,568,569,570,571,572,573,574,575,576,577,578,579,580,581,582,583,584,585,586,587,588,589,590,591,592,593,594,595,596,597,598,599,600,601,602,603,604,605,606,607,608,609,610,611,612,613,614,615,616,617,618,619,620,621,622,623,624,625,626,627,628,629,630,631,632,633,634,635,636,637,638,639,640,641,642,643,644,645,646,647,648,649,650,651,652,653,654,655,656,657,658,659,660,661,662,663,664,665,666,667,668,669,670,671,672,673,674,675,676,677,678,679,680,681,682,683,684,685,686,687,688,689,690,691,692,693,694,695,696,697,698,699,700,701,702,703,704,705,706,707,708,709,710,711,712,713,714,715,716,717,718,719,720,721,722,723,724,725,726,727,728,729,730,731,732,733,734,735,736,737,738,739,740,741,742,743,744,745,746,747,748,749,750,751,752,753,754,755,756,757,758,759,760,761,762,763,764,765,766,767,768,769,770,771,772,773,774,775,776,777,778,779,780,781,782,783,784,785,786,787,788,789,790,791,792,793,794,795,796,797,798,799,800,801,802,803,804,805,806,807,808,809,810,811,812,813,814,815,816,817,818,819,820,821,822,823,824,825,826,827,828,829,830,831,832,833,834,835,836,837,838,839,840,841,842,843,844,845,846,847,848,849,850,851,852,853,854,855,856,857,858,859,860,861,862,863,864,865,866,867,868,869,870,871,872,873,874,875,876,877,878,879,880,881,882,883,884,885,886,887,888,889,890,891,892,893,894,895,896,897,898,899,900,901,902,903,904,905,906,907,908,909,910,911,912,913,914,915,916,917,918,919,920,921,922,923,924,925,926,927,928,929,930,931,932,933,934,935,936,937,938,939,940,941,942,943,944,945,946,947,948,949,950,951,952,953,954,955,956,957,958,959,960,961,962,963,964,965,966,967,968,969,970,971,972,973,974,975,976,977,978,979,980,981,982,983,984,985,986,987,988,989,990,991,992,993,994,995,996,997,998,999,1000],"tree_info":[0,0,0,0,0,0,0,0,0,0,0,0,0,0,0,0,0,0,0,0,0,0,0,0,0,0,0,0,0,0,0,0,0,0,0,0,0,0,0,0,0,0,0,0,0,0,0,0,0,0,0,0,0,0,0,0,0,0,0,0,0,0,0,0,0,0,0,0,0,0,0,0,0,0,0,0,0,0,0,0,0,0,0,0,0,0,0,0,0,0,0,0,0,0,0,0,0,0,0,0,0,0,0,0,0,0,0,0,0,0,0,0,0,0,0,0,0,0,0,0,0,0,0,0,0,0,0,0,0,0,0,0,0,0,0,0,0,0,0,0,0,0,0,0,0,0,0,0,0,0,0,0,0,0,0,0,0,0,0,0,0,0,0,0,0,0,0,0,0,0,0,0,0,0,0,0,0,0,0,0,0,0,0,0,0,0,0,0,0,0,0,0,0,0,0,0,0,0,0,0,0,0,0,0,0,0,0,0,0,0,0,0,0,0,0,0,0,0,0,0,0,0,0,0,0,0,0,0,0,0,0,0,0,0,0,0,0,0,0,0,0,0,0,0,0,0,0,0,0,0,0,0,0,0,0,0,0,0,0,0,0,0,0,0,0,0,0,0,0,0,0,0,0,0,0,0,0,0,0,0,0,0,0,0,0,0,0,0,0,0,0,0,0,0,0,0,0,0,0,0,0,0,0,0,0,0,0,0,0,0,0,0,0,0,0,0,0,0,0,0,0,0,0,0,0,0,0,0,0,0,0,0,0,0,0,0,0,0,0,0,0,0,0,0,0,0,0,0,0,0,0,0,0,0,0,0,0,0,0,0,0,0,0,0,0,0,0,0,0,0,0,0,0,0,0,0,0,0,0,0,0,0,0,0,0,0,0,0,0,0,0,0,0,0,0,0,0,0,0,0,0,0,0,0,0,0,0,0,0,0,0,0,0,0,0,0,0,0,0,0,0,0,0,0,0,0,0,0,0,0,0,0,0,0,0,0,0,0,0,0,0,0,0,0,0,0,0,0,0,0,0,0,0,0,0,0,0,0,0,0,0,0,0,0,0,0,0,0,0,0,0,0,0,0,0,0,0,0,0,0,0,0,0,0,0,0,0,0,0,0,0,0,0,0,0,0,0,0,0,0,0,0,0,0,0,0,0,0,0,0,0,0,0,0,0,0,0,0,0,0,0,0,0,0,0,0,0,0,0,0,0,0,0,0,0,0,0,0,0,0,0,0,0,0,0,0,0,0,0,0,0,0,0,0,0,0,0,0,0,0,0,0,0,0,0,0,0,0,0,0,0,0,0,0,0,0,0,0,0,0,0,0,0,0,0,0,0,0,0,0,0,0,0,0,0,0,0,0,0,0,0,0,0,0,0,0,0,0,0,0,0,0,0,0,0,0,0,0,0,0,0,0,0,0,0,0,0,0,0,0,0,0,0,0,0,0,0,0,0,0,0,0,0,0,0,0,0,0,0,0,0,0,0,0,0,0,0,0,0,0,0,0,0,0,0,0,0,0,0,0,0,0,0,0,0,0,0,0,0,0,0,0,0,0,0,0,0,0,0,0,0,0,0,0,0,0,0,0,0,0,0,0,0,0,0,0,0,0,0,0,0,0,0,0,0,0,0,0,0,0,0,0,0,0,0,0,0,0,0,0,0,0,0,0,0,0,0,0,0,0,0,0,0,0,0,0,0,0,0,0,0,0,0,0,0,0,0,0,0,0,0,0,0,0,0,0,0,0,0,0,0,0,0,0,0,0,0,0,0,0,0,0,0,0,0,0,0,0,0,0,0,0,0,0,0,0,0,0,0,0,0,0,0,0,0,0,0,0,0,0,0,0,0,0,0,0,0,0,0,0,0,0,0,0,0,0,0,0,0,0,0,0,0,0,0,0,0,0,0,0,0,0,0,0,0,0,0,0,0,0,0,0,0,0,0,0,0,0,0,0,0,0,0,0,0,0,0,0,0,0,0,0,0,0,0,0,0,0,0,0,0,0,0,0,0,0,0,0,0,0,0,0,0,0,0,0,0,0,0,0,0,0,0,0,0,0,0,0,0,0,0,0,0,0,0,0,0,0,0,0,0,0,0,0,0,0,0,0,0,0,0,0,0,0,0,0,0,0,0,0,0,0,0,0,0,0,0,0,0,0,0,0,0,0,0,0,0,0,0,0,0,0,0,0,0,0,0,0,0,0,0,0,0,0,0,0,0,0,0,0,0,0,0,0,0,0,0,0,0,0,0,0,0,0,0,0,0,0,0,0],"trees":[{"base_weights":[-6.1375644E-2,-1.5841606E1,4.143507E1,2.7778935E0,-4.7121418E1,8.00299E1,2.075868E1,5.852791E0,-5.89391E0,-3.750672E1,-9.158264E1,6.925548E1,1.26088264E2,1.4151084E1,9.816269E1,-1.0093431E1,1.6816437E1,-4.1542004E1,2.679905E1,-9.6169014E1,-7.5473633E0,6.197253E1,8.817947E0,1.3353905E2,1.1441412E0,-1.3281027E1,3.517657E1,1.2401054E2,4.2343163E1,-1.476641E1,6.0603516E1,2.5461157E1,-2.7664543E1,-4.8432243E1,-2.5779278E0,4.2289495E0,1.0159071E1,-1.0090476E2,-3.4240784E1,-1.2577503E0,5.5146664E-1,3.1431642E0,6.6193886E1,8.676242E0,2.2671034E0,-2.1987934E1,6.8475256E0,3.1796152E1,4.750328E0,9.915954E0,2.4452637E1,2.9015608E0,8.010138E-1,-1.0424971E1,-3.392174E0,7.2219086E1,-1.0082031E0,2.2058123E1,1.0301054E2,-3.264465E1,4.2634807E0,-5.0620895E1,4.3121314E0,-3.8174263E1,1.5363458E1,-6.132324E0,2.7940528E0,-1.0484367E2,-1.7393873E0,-9.283589E-1,-2.879807E0,-4.9907837E0,1.1129478E0,5.311198E1,9.476152E1,-4.8868202E1,3.9898878E-1,3.39717E1,2.565796E0,3.3311287E-1,1.9551694E0,-3.5256776E-1,-2.351489E0,5.4989696E0,2.1373227E0,1.2421961E0,8.28409E0,8.46858E0,8.8085806E-1,-2.8447962E0,1.06747515E-1,-3.2753804E0,3.2515562E0,-2.8639228E0,7.38627E-1,6.9676244E-1,2.703811E0,-7.948566E-1,1.2534855E-1,-6.662456E0,-1.5072975E0,-7.274626E-1,6.982975E-2,3.614558E0,4.8307118E-1,6.2407813E0,4.8907986E-1,-3.2503104E0,8.94594E-1,-7.1775955E-1,1.2605695E0,1.9854345E0,4.27054E0,2.8238554E-2,2.1892875E-1],"categories":[],"categories_nodes":[],"categories_segments":[],"categories_sizes":[],"default_left":[0,0,0,0,0,0,0,0,0,0,0,0,0,0,0,0,0,0,0,0,0,0,0,0,0,0,0,0,0,0,0,0,0,0,0,0,0,0,0,0,0,0,0,0,0,0,0,0,0,0,0,0,0,0,0,0,0,0,0,0,0,0,0,0,0,0,0,0,0,0,0,0,0,0,0,0,0,0,0,0,0,0,0,0,0,0,0,0,0,0,0,0,0,0,0,0,0,0,0,0,0,0,0,0,0,0,0,0,0,0,0,0,0,0,0],"id":0,"left_children":[1,3,5,7,9,11,13,15,-1,17,19,21,23,25,27,29,31,33,35,37,39,41,-1,43,-1,45,47,49,51,53,55,57,59,61,63,-1,65,67,69,-1,-1,71,73,-1,-1,75,-1,77,-1,-1,79,-1,-1,81,-1,83,-1,85,87,89,-1,91,-1,93,95,97,-1,99,-1,-1,-1,101,-1,103,105,107,109,111,113,-1,-1,-1,-1,-1,-1,-1,-1,-1,-1,-1,-1,-1,-1,-1,-1,-1,-1,-1,-1,-1,-1,-1,-1,-1,-1,-1,-1,-1,-1,-1,-1,-1,-1,-1,-1],"loss_changes":[5.133832E5,3.3094225E5,1.707071E5,1.0730971E5,8.719109E4,2.8486625E4,7.123742E4,6.0835305E4,0E0,4.678386E4,1.3534594E4,2.4316281E4,7.9875156E3,7.660127E4,1.0619961E4,4.7806773E4,7.991668E4,4.444147E4,6.8135938E3,6.809625E3,7.9827795E2,1.4443969E4,0E0,1.3995469E3,0E0,6.454879E4,7.96525E3,2.0458156E4,1.741504E1,2.2474562E4,9.192016E3,4.338303E4,1.8486664E4,3.977525E4,1.7191324E4,0E0,5.3517266E3,6.2812188E3,2.3616797E2,0E0,0E0,6.867282E2,1.5521578E4,0E0,0E0,3.3116656E4,0E0,4.427867E3,0E0,0E0,2.2755139E2,0E0,0E0,1.5666964E4,0E0,1.8160898E3,0E0,3.7055938E4,1.8450906E4,1.476525E4,0E0,2.9588562E4,0E0,4.0237012E3,1.6284502E3,4.022203E2,0E0,2.1375E3,0E0,0E0,0E0,1.7606241E2,0E0,8.30918E3,6.5480625E3,5.852883E3,7.54161E3,2.7077656E3,1.0373184E1,0E0,0E0,0E0,0E0,0E0,0E0,0E0,0E0,0E0,0E0,0E0,0E0,0E0,0E0,0E0,0E0,0E0,0E0,0E0,0E0,0E0,0E0,0E0,0E0,0E0,0E0,0E0,0E0,0E0,0E0,0E0,0E0,0E0,0E0,0E0,0E0],"parents":[2147483647,0,0,1,1,2,2,3,3,4,4,5,5,6,6,7,7,9,9,10,10,11,11,12,12,13,13,14,14,15,15,16,16,17,17,18,18,19,19,20,20,21,21,23,23,25,25,26,26,27,27,28,28,29,29,30,30,31,31,32,32,33,33,34,34,36,36,37,37,38,38,41,41,42,42,45,45,47,47,50,50,53,53,55,55,57,57,58,58,59,59,61,61,63,63,64,64,65,65,67,67,71,71,73,73,74,74,75,75,76,76,77,77,78,78],"right_children":[2,4,6,8,10,12,14,16,-1,18,20,22,24,26,28,30,32,34,36,38,40,42,-1,44,-1,46,48,50,52,54,56,58,60,62,64,-1,66,68,70,-1,-1,72,74,-1,-1,76,-1,78,-1,-1,80,-1,-1,82,-1,84,-1,86,88,90,-1,92,-1,94,96,98,-1,100,-1,-1,-1,102,-1,104,106,108,110,112,114,-1,-1,-1,-1,-1,-1,-1,-1,-1,-1,-1,-1,-1,-1,-1,-1,-1,-1,-1,-1,-1,-1,-1,-1,-1,-1,-1,-1,-1,-1,-1,-1,-1,-1,-1,-1],"split_conditions":[2E0,1E0,1E0,1E0,1E0,1E0,1E0,1E0,-5.89391E0,1E0,1E0,2E0,2E0,1E0,1E0,1E0,1E0,2E0,2E0,1E0,1E0,1E0,8.817947E0,1E0,1.1441412E0,1E0,1E0,3E0,1E0,1E0,3E0,2E0,1E0,2E0,1E0,4.2289495E0,1E0,1E0,1E0,-1.2577503E0,5.5146664E-1,2E0,1E0,8.676242E0,2.2671034E0,2E0,6.8475256E0,1E0,4.750328E0,9.915954E0,1E0,2.9015608E0,8.010138E-1,2E0,-3.392174E0,2E0,-1.0082031E0,1E0,1E0,1E0,4.2634807E0,1E0,4.3121314E0,1E0,1E0,1E0,2.7940528E0,1E0,-1.7393873E0,-9.283589E-1,-2.879807E0,1E0,1.1129478E0,2E0,1E0,1E0,1E0,1E0,1E0,3.3311287E-1,1.9551694E0,-3.5256776E-1,-2.351489E0,5.4989696E0,2.1373227E0,1.2421961E0,8.28409E0,8.46858E0,8.8085806E-1,-2.8447962E0,1.06747515E-1,-3.2753804E0,3.2515562E0,-2.8639228E0,7.38627E-1,6.9676244E-1,2.703811E0,-7.948566E-1,1.2534855E-1,-6.662456E0,-1.5072975E0,-7.274626E-1,6.982975E-2,3.614558E0,4.8307118E-1,6.2407813E0,4.8907986E-1,-3.2503104E0,8.94594E-1,-7.1775955E-1,1.2605695E0,1.9854345E0,4.27054E0,2.8238554E-2,2.1892875E-1],"split_indices":[1573,1928,992,1463,362,881,1225,1855,0,461,102,80,1154,145,145,145,357,1053,1928,514,1,1855,0,357,0,296,902,1573,811,252,1088,881,461,2038,1855,0,1326,461,1076,0,0,678,461,0,0,1855,0,926,0,0,1900,0,0,80,0,145,0,1780,992,1,0,1584,0,1480,44,1140,0,357,0,0,0,809,0,1154,41,461,1574,862,1160,0,0,0,0,0,0,0,0,0,0,0,0,0,0,0,0,0,0,0,0,0,0,0,0,0,0,0,0,0,0,0,0,0,0,0,0],"split_type":[0,0,0,0,0,0,0,0,0,0,0,0,0,0,0,0,0,0,0,0,0,0,0,0,0,0,0,0,0,0,0,0,0,0,0,0,0,0,0,0,0,0,0,0,0,0,0,0,0,0,0,0,0,0,0,0,0,0,0,0,0,0,0,0,0,0,0,0,0,0,0,0,0,0,0,0,0,0,0,0,0,0,0,0,0,0,0,0,0,0,0,0,0,0,0,0,0,0,0,0,0,0,0,0,0,0,0,0,0,0,0,0,0,0,0],"sum_hessian":[7.82E2,5.67E2,2.15E2,3.56E2,2.11E2,7.4E1,1.41E2,3.46E2,1E1,1.75E2,3.6E1,6.2E1,1.2E1,1.31E2,1E1,1.41E2,2.05E2,1.65E2,1E1,3.4E1,2E0,5.8E1,4E0,1.1E1,1E0,5.7E1,7.4E1,6E0,4E0,1.33E2,8E0,1.72E2,3.3E1,1.4E2,2.5E1,2E0,8E0,3.1E1,3E0,1E0,1E0,4E0,5.4E1,1E1,1E0,5.4E1,3E0,7E1,4E0,4E0,2E0,3E0,1E0,1.21E2,1.2E1,7E0,1E0,1.66E2,6E0,3.2E1,1E0,1.38E2,2E0,8E0,1.7E1,6E0,2E0,2.9E1,2E0,2E0,1E0,3E0,1E0,3.9E1,1.5E1,2.4E1,3E1,6.5E1,5E0,1E0,1E0,1.04E2,1.7E1,4E0,3E0,1.64E2,2E0,4E0,2E0,2.3E1,9E0,1.36E2,2E0,7E0,1E0,1.6E1,1E0,3E0,3E0,2.8E1,1E0,1E0,2E0,3.5E1,4E0,1.4E1,1E0,2.3E1,1E0,1.9E1,1.1E1,6.3E1,2E0,2E0,3E0],"tree_param":{"num_deleted":"0","num_feature":"2048","num_nodes":"115","size_leaf_vector":"1"}},{"base_weights":[-1.02579154E-1,-5.736578E0,8.4524475E1,-1.1059015E1,5.7859802E1,1.3535756E2,5.3289474E1,-1.714396E1,3.0613598E1,7.3213264E1,5.473232E0,1.5158687E2,4.0658264E1,2.1465937E1,1.1209206E2,-1.3288566E0,-3.2226368E1,2.3859352E1,8.649935E1,8.849991E1,3.9318645E0,2.3957342E1,-2.915109E0,9.958441E0,1.218551E0,2.9232092E0,6.882633E-1,-1.1533407E0,6.1514716E0,8.054433E0,2.368988E1,3.278632E0,-5.2723774E1,-3.593199E1,2.2190073E1,5.40796E1,1.5931488E1,1.1551723E2,-1.0042155E1,9.326036E1,5.048136E0,-1.0013164E1,9.34661E0,3.7562214E1,6.3595786E0,-1.4219666E1,2.1410837E1,1.8941821E0,3.2272142E-1,6.086193E0,-7.819298E1,-4.1295333E0,1.9444467E0,-3.2570553E1,-9.0410484E1,-2.8558218E0,6.9111855E1,1.6908023E0,5.2962317E0,1.065138E1,4.0674505E0,1.8481783E0,8.980542E0,-9.221776E-1,-1.7569132E-2,9.5716866E1,3.8043034E-1,7.976839E-1,-3.2527834E-1,-8.258844E-1,-1.1114932E-1,1.4291855E1,2.0647125E0,3.4765825E0,8.227539E-1,-7.2263794E0,1.3946149E0,-9.5867354E-1,-5.0011482E-2,2.0406468E0,1.0349414E1,1.7276298E0,-2.9645E-1,-5.8906627E0,-8.897479E-1,-1.5519551E0,-3.3061018E0,-6.0250344E0,6.43954E-2,6.7838824E-1,-1.433302E0,1.3530236E0,5.2245193E0,3.6913595E-1,3.7806685E0,6.1839747E0,1.785078E0,1.1223707E0,9.968978E-2,-4.3197957E-1,9.055909E-1,4.191384E-1,-3.4214494E-1,-1.1843666E0,1.8847026E-1,3.1677365E-1,9.8061955E-1],"categories":[],"categories_nodes":[],"categories_segments":[],"categories_sizes":[],"default_left":[0,0,0,0,0,0,0,0,0,0,0,0,0,0,0,0,0,0,0,0,0,0,0,0,0,0,0,0,0,0,0,0,0,0,0,0,0,0,0,0,0,0,0,0,0,0,0,0,0,0,0,0,0,0,0,0,0,0,0,0,0,0,0,0,0,0,0,0,0,0,0,0,0,0,0,0,0,0,0,0,0,0,0,0,0,0,0,0,0,0,0,0,0,0,0,0,0,0,0,0,0,0,0,0,0,0,0],"id":1,"left_children":[1,3,5,7,9,11,13,15,17,19,21,23,25,27,29,31,33,35,37,39,41,43,-1,-1,-1,-1,-1,45,-1,-1,47,49,51,53,55,57,59,61,63,65,67,69,71,73,75,77,79,-1,-1,81,83,-1,-1,85,87,89,91,-1,-1,93,-1,-1,-1,-1,-1,95,-1,-1,-1,-1,-1,97,99,-1,101,103,-1,-1,-1,-1,105,-1,-1,-1,-1,-1,-1,-1,-1,-1,-1,-1,-1,-1,-1,-1,-1,-1,-1,-1,-1,-1,-1,-1,-1,-1,-1],"loss_changes":[3.7428725E5,2.4976684E5,7.058769E4,1.7295627E5,4.544525E4,2.1501E4,5.7475633E4,1.4164389E5,3.0775727E4,4.625153E4,1.4627526E4,1.2802656E4,2.1755664E2,3.8498562E4,1.3485094E4,6.908209E4,6.2098E4,1.8065414E4,2.6372914E4,1.3830875E4,7.73168E2,2.394689E3,0E0,0E0,0E0,0E0,0E0,5.6114106E3,0E0,0E0,2.1357764E2,6.1777285E4,2.918075E4,4.924622E4,2.370133E4,1.0999809E4,1.5953807E4,1.2830391E4,1.3461636E2,6.6962188E3,3.048872E2,5.6054108E1,2.2256677E2,3.9581738E3,1.4653649E3,1.723584E2,5.363374E2,0E0,0E0,6.101482E4,7.9910312E3,0E0,0E0,4.1109312E4,9.1195625E3,4.1169478E3,3.041207E3,0E0,0E0,1.3593949E4,0E0,0E0,0E0,0E0,0E0,4.7067188E3,0E0,0E0,0E0,0E0,0E0,1.5905463E2,5.481959E2,0E0,1.4839665E2,5.393008E2,0E0,0E0,0E0,0E0,6.171039E1,0E0,0E0,0E0,0E0,0E0,0E0,0E0,0E0,0E0,0E0,0E0,0E0,0E0,0E0,0E0,0E0,0E0,0E0,0E0,0E0,0E0,0E0,0E0,0E0,0E0,0E0],"parents":[2147483647,0,0,1,1,2,2,3,3,4,4,5,5,6,6,7,7,8,8,9,9,10,10,11,11,12,12,13,13,14,14,15,15,16,16,17,17,18,18,19,19,20,20,21,21,27,27,30,30,31,31,32,32,33,33,34,34,35,35,36,36,37,37,38,38,39,39,40,40,41,41,42,42,43,43,44,44,45,45,46,46,49,49,50,50,53,53,54,54,55,55,56,56,59,59,65,65,71,71,72,72,74,74,75,75,80,80],"right_children":[2,4,6,8,10,12,14,16,18,20,22,24,26,28,30,32,34,36,38,40,42,44,-1,-1,-1,-1,-1,46,-1,-1,48,50,52,54,56,58,60,62,64,66,68,70,72,74,76,78,80,-1,-1,82,84,-1,-1,86,88,90,92,-1,-1,94,-1,-1,-1,-1,-1,96,-1,-1,-1,-1,-1,98,100,-1,102,104,-1,-1,-1,-1,106,-1,-1,-1,-1,-1,-1,-1,-1,-1,-1,-1,-1,-1,-1,-1,-1,-1,-1,-1,-1,-1,-1,-1,-1,-1,-1],"split_conditions":[2E0,1E0,3E0,1E0,2E0,2E0,1E0,1E0,3E0,1E0,1E0,2E0,2E0,1E0,1E0,2E0,1E0,3E0,1E0,1E0,2E0,1E0,-2.915109E0,9.958441E0,1.218551E0,2.9232092E0,6.882633E-1,2E0,6.1514716E0,8.054433E0,1E0,1E0,2E0,1E0,1E0,1E0,1E0,1E0,1E0,1E0,3E0,1E0,1E0,1E0,1E0,2E0,1E0,1.8941821E0,3.2272142E-1,1E0,2E0,-4.1295333E0,1.9444467E0,1E0,1E0,2E0,1E0,1.6908023E0,5.2962317E0,3E0,4.0674505E0,1.8481783E0,8.980542E0,-9.221776E-1,-1.7569132E-2,1E0,3.8043034E-1,7.976839E-1,-3.2527834E-1,-8.258844E-1,-1.1114932E-1,1E0,1E0,3.4765825E0,1E0,1E0,1.3946149E0,-9.5867354E-1,-5.0011482E-2,2.0406468E0,3E0,1.7276298E0,-2.9645E-1,-5.8906627E0,-8.897479E-1,-1.5519551E0,-3.3061018E0,-6.0250344E0,6.43954E-2,6.7838824E-1,-1.433302E0,1.3530236E0,5.2245193E0,3.6913595E-1,3.7806685E0,6.1839747E0,1.785078E0,1.1223707E0,9.968978E-2,-4.3197957E-1,9.055909E-1,4.191384E-1,-3.4214494E-1,-1.1843666E0,1.8847026E-1,3.1677365E-1,9.8061955E-1],"split_indices":[1724,1622,1380,203,1155,678,915,1155,203,1385,228,1028,1057,405,257,1385,1393,1380,1724,802,1385,1057,0,0,0,0,0,354,0,0,1155,362,650,86,617,405,1240,1155,257,86,1057,265,680,389,807,650,203,0,0,1917,1261,0,0,405,389,1057,695,0,0,1155,0,0,0,0,0,44,0,0,0,0,0,695,877,0,44,1339,0,0,0,0,203,0,0,0,0,0,0,0,0,0,0,0,0,0,0,0,0,0,0,0,0,0,0,0,0,0,0],"split_type":[0,0,0,0,0,0,0,0,0,0,0,0,0,0,0,0,0,0,0,0,0,0,0,0,0,0,0,0,0,0,0,0,0,0,0,0,0,0,0,0,0,0,0,0,0,0,0,0,0,0,0,0,0,0,0,0,0,0,0,0,0,0,0,0,0,0,0,0,0,0,0,0,0,0,0,0,0,0,0,0,0,0,0,0,0,0,0,0,0,0,0,0,0,0,0,0,0,0,0,0,0,0,0,0,0,0,0],"sum_hessian":[7.83E2,7.35E2,4.8E1,6.79E2,5.6E1,1.7E1,3.1E1,5.93E2,8.6E1,4.3E1,1.3E1,1.4E1,3E0,2.1E1,1E1,2.9E2,3.03E2,7.8E1,8E0,3.5E1,8E0,1E1,3E0,1.3E1,1E0,2E0,1E0,1.7E1,4E0,8E0,2E0,2.67E2,2.3E1,2.84E2,1.9E1,1.5E1,6.3E1,6E0,2E0,3.3E1,2E0,2E0,6E0,5E0,5E0,1.1E1,6E0,1E0,1E0,2.59E2,8E0,2E1,3E0,2.69E2,1.5E1,1.3E1,6E0,9E0,6E0,5.8E1,5E0,2E0,4E0,1E0,1E0,3.2E1,1E0,1E0,1E0,1E0,1E0,3E0,3E0,3E0,2E0,3E0,2E0,1E1,1E0,2E0,4E0,8.6E1,1.73E2,6E0,2E0,1.97E2,7.2E1,1.4E1,1E0,8E0,5E0,2E0,4E0,5.4E1,4E0,3E1,2E0,2E0,1E0,2E0,1E0,1E0,1E0,1E0,2E0,3E0,1E0],"tree_param":{"num_deleted":"0","num_feature":"2048","num_nodes":"107","size_leaf_vector":"1"}},{"base_weights":[3.4338805E-1,-1.867179E1,4.1350643E1,-1.0746315E1,-5.3627457E1,7.4904106E1,2.1211645E1,-1.5022272E1,4.601539E1,-3.6857754E1,-1.01791466E2,5.4944027E1,1.332633E2,1.472019E1,1.06032745E2,-2.2085266E1,2.563358E1,9.725402E1,3.6067064E0,-4.1074978E1,3.0112042E0,-6.6047463E0,-2.283972E0,5.9129375E1,-1.8680388E0,1.3775653E2,1.0734401E0,-8.978683E0,3.361538E1,1.1035599E1,1.4027722E2,-2.3320461E1,7.994709E0,1.4725776E1,9.605705E1,1.0544693E2,-2.8865695E-1,3.208203E1,-9.81319E0,-4.689247E1,1.9643538E1,6.2858418E1,-4.2619343E1,8.784433E0,2.2995133E0,2.1661572E1,-2.9436388E1,3.0697498E1,6.545895E1,1.6774865E0,-3.2115276E0,9.47734E0,1.8350966E0,-1.3164464E1,-3.788958E1,8.900326E0,4.3692665E0,1.2390225E2,8.347636E0,6.9967904E0,7.7948266E-1,2.6144984E0,5.169922E-1,-1.8491035E1,7.769568E0,-5.064336E1,8.997022E0,1.8466887E0,-3.499471E0,5.5081165E1,9.67373E1,-3.4855363E0,-5.027898E-1,-1.2580719E1,2.6466055E1,-4.310343E1,-9.759173E-1,3.2608685E1,2.6470134E0,4.4639454E0,1.0914567E0,-6.131909E-1,3.1265554E-1,-5.7129925E-1,-5.6639514E0,-1.9389728E0,-4.5929646E0,1.1577176E0,-2.6412147E-1,1.8587697E0,8.532329E0,7.9819417E-1,-1.702081E-2,-1.438078E0,5.611289E-1,5.6182194E-1,8.8152185E-2,-2.737673E0,-5.079088E0,-9.274349E-1,1.8629271E0,3.9016496E-2,-3.6649767E-1,2.8589575E0,5.1262107E0,6.3494124E0,1.4461521E0,-2.1533546E0,1.6602906E0,1.7376299E0,4.6643874E-1,-2.8598907E0,8.7593585E-1,6.1035256E0,-1.0045717E0,2.1111395E0,2.0116352E-1,1.8902771E-1,2.2846725E-2],"categories":[],"categories_nodes":[],"categories_segments":[],"categories_sizes":[],"default_left":[0,0,0,0,0,0,0,0,0,0,0,0,0,0,0,0,0,0,0,0,0,0,0,0,0,0,0,0,0,0,0,0,0,0,0,0,0,0,0,0,0,0,0,0,0,0,0,0,0,0,0,0,0,0,0,0,0,0,0,0,0,0,0,0,0,0,0,0,0,0,0,0,0,0,0,0,0,0,0,0,0,0,0,0,0,0,0,0,0,0,0,0,0,0,0,0,0,0,0,0,0,0,0,0,0,0,0,0,0,0,0,0,0,0,0,0,0,0,0],"id":2,"left_children":[1,3,5,7,9,11,13,15,17,19,21,23,25,27,29,31,33,35,37,39,-1,-1,-1,41,-1,43,-1,45,47,49,51,53,-1,55,57,59,-1,61,63,65,67,69,71,-1,-1,73,75,77,79,-1,81,-1,-1,83,85,87,-1,89,91,-1,-1,-1,-1,93,95,97,99,-1,101,103,105,-1,-1,107,109,111,113,115,117,-1,-1,-1,-1,-1,-1,-1,-1,-1,-1,-1,-1,-1,-1,-1,-1,-1,-1,-1,-1,-1,-1,-1,-1,-1,-1,-1,-1,-1,-1,-1,-1,-1,-1,-1,-1,-1,-1,-1,-1],"loss_changes":[6.128838E5,1.4819428E5,1.6666878E5,1.0724122E5,7.6210125E4,1.01009375E5,8.4885305E4,1.180113E5,6.7011086E4,2.890671E4,2.7665625E3,2.6995453E4,9.623531E3,6.612763E4,3.4236375E4,6.7751266E4,4.5443574E4,1.2173703E4,7.193274E3,2.6353664E4,0E0,0E0,0E0,2.847989E4,0E0,1.5790625E3,0E0,4.200837E4,5.609672E3,9.897857E2,5.8509062E3,5.0844688E4,0E0,1.6775562E4,1.8503992E4,6.7007656E3,0E0,1.0555596E3,2.1272131E3,1.42915625E4,1.7166467E3,1.2061594E4,9.235415E2,0E0,0E0,4.774908E3,1.551675E4,4.041625E3,5.018789E2,0E0,2.1250273E2,0E0,0E0,6.324349E4,3.226325E4,6.420134E3,0E0,3.1881094E3,1.1848706E2,0E0,0E0,0E0,0E0,1.3353213E3,2.6555603E1,9.325641E3,2.9332756E3,0E0,3.3065277E1,1.0272953E4,1.7168984E3,0E0,0E0,4.357493E3,4.2364062E2,4.867824E3,2.25002E4,2.4949375E3,4.1305695E0,0E0,0E0,0E0,0E0,0E0,0E0,0E0,0E0,0E0,0E0,0E0,0E0,0E0,0E0,0E0,0E0,0E0,0E0,0E0,0E0,0E0,0E0,0E0,0E0,0E0,0E0,0E0,0E0,0E0,0E0,0E0,0E0,0E0,0E0,0E0,0E0,0E0,0E0,0E0,0E0],"parents":[2147483647,0,0,1,1,2,2,3,3,4,4,5,5,6,6,7,7,8,8,9,9,10,10,11,11,12,12,13,13,14,14,15,15,16,16,17,17,18,18,19,19,23,23,25,25,27,27,28,28,29,29,30,30,31,31,33,33,34,34,35,35,37,37,38,38,39,39,40,40,41,41,42,42,45,45,46,46,47,47,48,48,50,50,53,53,54,54,55,55,57,57,58,58,63,63,64,64,65,65,66,66,68,68,69,69,70,70,73,73,74,74,75,75,76,76,77,77,78,78],"right_children":[2,4,6,8,10,12,14,16,18,20,22,24,26,28,30,32,34,36,38,40,-1,-1,-1,42,-1,44,-1,46,48,50,52,54,-1,56,58,60,-1,62,64,66,68,70,72,-1,-1,74,76,78,80,-1,82,-1,-1,84,86,88,-1,90,92,-1,-1,-1,-1,94,96,98,100,-1,102,104,106,-1,-1,108,110,112,114,116,118,-1,-1,-1,-1,-1,-1,-1,-1,-1,-1,-1,-1,-1,-1,-1,-1,-1,-1,-1,-1,-1,-1,-1,-1,-1,-1,-1,-1,-1,-1,-1,-1,-1,-1,-1,-1,-1,-1,-1,-1],"split_conditions":[2E0,1E0,1E0,1E0,3E0,2E0,2E0,1E0,2E0,1E0,1E0,1E0,2E0,1E0,1E0,1E0,3E0,2E0,1E0,1E0,3.0112042E0,-6.6047463E0,-2.283972E0,1E0,-1.8680388E0,2E0,1.0734401E0,1E0,1E0,1E0,1E0,1E0,7.994709E0,1E0,1E0,2E0,-2.8865695E-1,1E0,1E0,1E0,2E0,1E0,2E0,8.784433E0,2.2995133E0,1E0,1E0,1E0,1E0,1.6774865E0,3E0,9.47734E0,1.8350966E0,3E0,1E0,1E0,4.3692665E0,1E0,1E0,6.9967904E0,7.7948266E-1,2.6144984E0,5.169922E-1,3E0,1E0,1E0,1E0,1.8466887E0,1E0,1E0,1E0,-3.4855363E0,-5.027898E-1,2E0,1E0,2E0,1E0,1E0,1E0,4.4639454E0,1.0914567E0,-6.131909E-1,3.1265554E-1,-5.7129925E-1,-5.6639514E0,-1.9389728E0,-4.5929646E0,1.1577176E0,-2.6412147E-1,1.8587697E0,8.532329E0,7.9819417E-1,-1.702081E-2,-1.438078E0,5.611289E-1,5.6182194E-1,8.8152185E-2,-2.737673E0,-5.079088E0,-9.274349E-1,1.8629271E0,3.9016496E-2,-3.6649767E-1,2.8589575E0,5.1262107E0,6.3494124E0,1.4461521E0,-2.1533546E0,1.6602906E0,1.7376299E0,4.6643874E-1,-2.8598907E0,8.7593585E-1,6.1035256E0,-1.0045717E0,2.1111395E0,2.0116352E-1,1.8902771E-1,2.2846725E-2],"split_indices":[1357,1453,992,885,1866,294,203,203,885,1326,203,656,466,145,1097,1941,1025,89,291,253,0,0,0,843,0,1561,0,1866,1385,626,257,1835,0,957,1357,1053,0,1851,294,203,410,383,402,0,0,1097,1724,926,168,0,203,0,0,561,727,1724,0,626,257,0,0,0,0,291,177,699,1025,0,1025,735,699,0,0,25,291,923,1722,94,656,0,0,0,0,0,0,0,0,0,0,0,0,0,0,0,0,0,0,0,0,0,0,0,0,0,0,0,0,0,0,0,0,0,0,0,0,0,0,0,0],"split_type":[0,0,0,0,0,0,0,0,0,0,0,0,0,0,0,0,0,0,0,0,0,0,0,0,0,0,0,0,0,0,0,0,0,0,0,0,0,0,0,0,0,0,0,0,0,0,0,0,0,0,0,0,0,0,0,0,0,0,0,0,0,0,0,0,0,0,0,0,0,0,0,0,0,0,0,0,0,0,0,0,0,0,0,0,0,0,0,0,0,0,0,0,0,0,0,0,0,0,0,0,0,0,0,0,0,0,0,0,0,0,0,0,0,0,0,0,0,0,0],"sum_hessian":[7.84E2,5.36E2,2.48E2,4.38E2,9.8E1,9.2E1,1.56E2,4.08E2,3E1,7.4E1,2.4E1,7E1,2.2E1,1.46E2,1E1,3.48E2,6E1,1.3E1,1.7E1,7.1E1,3E0,2.2E1,2E0,6.7E1,3E0,2.1E1,1E0,6.5E1,8.1E1,3E0,7E0,3.46E2,2E0,5.3E1,7E0,1.2E1,1E0,5E0,1.2E1,6.5E1,6E0,6.5E1,2E0,2E1,1E0,2.6E1,3.9E1,7.6E1,5E0,1E0,2E0,6E0,1E0,2.05E2,1.41E2,4.9E1,4E0,5E0,2E0,1.1E1,1E0,3E0,2E0,8E0,4E0,6.1E1,4E0,4E0,2E0,5.5E1,1E1,1E0,1E0,3E0,2.3E1,2.6E1,1.3E1,7.1E1,5E0,4E0,1E0,1E0,1E0,1.96E2,9E0,1.2E2,2.1E1,2.8E1,2.1E1,1E0,4E0,1E0,1E0,7E0,1E0,3E0,1E0,5.2E1,9E0,2E0,2E0,1E0,1E0,4.3E1,1.2E1,9E0,1E0,2E0,1E0,2.1E1,2E0,2.5E1,1E0,1E0,1.2E1,6.8E1,3E0,4E0,1E0],"tree_param":{"num_deleted":"0","num_feature":"2048","num_nodes":"119","size_leaf_vector":"1"}},{"base_weights":[-4.5619342E-2,-1.3292372E1,4.973033E1,-1.841003E1,4.296224E1,4.3435993E1,1.5126429E1,-2.0863497E1,9.721035E1,5.7782227E1,-1.7528826E1,3.9567448E1,9.746131E0,-1.5079506E1,-5.4254963E1,6.72651E0,1.8368666E0,6.4309685E1,-3.3828979E0,-2.1024464E1,5.436245E-1,3.700404E1,1.1009428E2,-1.3217675E1,-5.0231214E0,-5.932285E1,3.7057474E0,5.3798508E1,6.436675E0,2.9058533E0,-8.901941E-1,-2.4679085E1,3.70176E-1,2.7264101E1,5.5397686E1,1.9750804E-1,8.486782E0,-1.6026592E1,2.1749771E1,-6.2349403E1,2.3789914E0,2.8979733E1,7.399274E1,-4.40542E-2,4.3452353E0,-1.6658809E0,-2.6489636E-1,3.0230787E1,-1.1373314E1,5.7926704E1,-5.2185464E0,-1.1803905E0,1.4527552E0,2.1120627E0,-3.5964997E0,-4.0219584E0,3.07793E0,3.0980198E0,1.3063282E-1,5.385488E0,7.69512E-1,8.5402966E-2,3.2122496E-1,1.6504626E0,8.559053E0,-1.3610709E0,2.822494E-1,3.7590137E0,8.6802326E-2,-4.1573995E-1,-7.2612606E-2],"categories":[],"categories_nodes":[],"categories_segments":[],"categories_sizes":[],"default_left":[0,0,0,0,0,0,0,0,0,0,0,0,0,0,0,0,0,0,0,0,0,0,0,0,0,0,0,0,0,0,0,0,0,0,0,0,0,0,0,0,0,0,0,0,0,0,0,0,0,0,0,0,0,0,0,0,0,0,0,0,0,0,0,0,0,0,0,0,0,0,0],"id":3,"left_children":[1,3,5,7,9,11,-1,13,15,17,19,21,-1,23,25,-1,-1,27,29,31,-1,33,35,37,-1,39,-1,41,-1,43,-1,45,-1,47,49,-1,-1,51,53,55,-1,57,59,-1,61,-1,-1,63,65,67,69,-1,-1,-1,-1,-1,-1,-1,-1,-1,-1,-1,-1,-1,-1,-1,-1,-1,-1,-1,-1],"loss_changes":[5.176069E5,1.792839E5,1.89633E5,1.6343678E5,4.762965E4,6.406528E4,0E0,1.069517E5,5.452836E3,1.6986172E4,1.1922832E3,2.4309938E4,0E0,5.704928E4,5.0754797E4,0E0,0E0,9.972641E3,3.837619E2,1.1316489E3,0E0,2.5900031E4,1.3438297E4,4.6021164E4,0E0,2.5679E4,0E0,1.3893977E4,0E0,2.386456E1,0E0,2.5871436E2,0E0,1.2035594E4,8.273875E3,0E0,0E0,4.9474836E4,3.5589438E4,2.1401094E4,0E0,8.791368E3,1.1860906E4,0E0,1.2758636E-1,0E0,0E0,3.473471E4,1.4268862E3,6.493078E3,9.825081E0,0E0,0E0,0E0,0E0,0E0,0E0,0E0,0E0,0E0,0E0,0E0,0E0,0E0,0E0,0E0,0E0,0E0,0E0,0E0,0E0],"parents":[2147483647,0,0,1,1,2,2,3,3,4,4,5,5,7,7,8,8,9,9,10,10,11,11,13,13,14,14,17,17,18,18,19,19,21,21,22,22,23,23,25,25,27,27,29,29,31,31,33,33,34,34,37,37,38,38,39,39,41,41,42,42,44,44,47,47,48,48,49,49,50,50],"right_children":[2,4,6,8,10,12,-1,14,16,18,20,22,-1,24,26,-1,-1,28,30,32,-1,34,36,38,-1,40,-1,42,-1,44,-1,46,-1,48,50,-1,-1,52,54,56,-1,58,60,-1,62,-1,-1,64,66,68,70,-1,-1,-1,-1,-1,-1,-1,-1,-1,-1,-1,-1,-1,-1,-1,-1,-1,-1,-1,-1],"split_conditions":[2E0,1E0,1E0,2E0,2E0,2E0,1.5126429E1,1E0,3E0,1E0,3E0,1E0,9.746131E0,1E0,1E0,6.72651E0,1.8368666E0,1E0,1E0,1E0,5.436245E-1,1E0,1E0,1E0,-5.0231214E0,3E0,3.7057474E0,1E0,6.436675E0,1E0,-8.901941E-1,1E0,3.70176E-1,1E0,1E0,1.9750804E-1,8.486782E0,2E0,1E0,1E0,2.3789914E0,2E0,2E0,-4.40542E-2,1E0,-1.6658809E0,-2.6489636E-1,1E0,2E0,2E0,1E0,-1.1803905E0,1.4527552E0,2.1120627E0,-3.5964997E0,-4.0219584E0,3.07793E0,3.0980198E0,1.3063282E-1,5.385488E0,7.69512E-1,8.5402966E-2,3.2122496E-1,1.6504626E0,8.559053E0,-1.3610709E0,2.822494E-1,3.7590137E0,8.6802326E-2,-4.1573995E-1,-7.2612606E-2],"split_indices":[1087,461,1344,1502,2029,1502,0,1919,378,1140,461,1395,0,747,1997,0,0,494,319,2032,0,1917,322,489,0,1062,0,1656,0,80,0,1650,0,127,372,0,0,14,41,928,0,461,448,0,90,0,0,126,307,2035,934,0,0,0,0,0,0,0,0,0,0,0,0,0,0,0,0,0,0,0,0],"split_type":[0,0,0,0,0,0,0,0,0,0,0,0,0,0,0,0,0,0,0,0,0,0,0,0,0,0,0,0,0,0,0,0,0,0,0,0,0,0,0,0,0,0,0,0,0,0,0,0,0,0,0,0,0,0,0,0,0,0,0,0,0,0,0,0,0,0,0,0,0,0,0],"sum_hessian":[7.83E2,6.19E2,1.64E2,5.68E2,5.1E1,1.6E2,4E0,5.57E2,1.1E1,4.1E1,1E1,1.56E2,4E0,4.76E2,8.1E1,9E0,2E0,3.7E1,4E0,9E0,1E0,1.52E2,4E0,4.64E2,1.2E1,7.8E1,3E0,3.1E1,6E0,3E0,1E0,8E0,1E0,1.01E2,5.1E1,1E0,3E0,4.3E2,3.4E1,7.6E1,2E0,1.5E1,1.6E1,1E0,2E0,7E0,1E0,9.4E1,7E0,4.9E1,2E0,4.01E2,2.9E1,3E1,4E0,7.5E1,1E0,8E0,7E0,1.3E1,3E0,1E0,1E0,9.2E1,2E0,4E0,3E0,4.7E1,2E0,1E0,1E0],"tree_param":{"num_deleted":"0","num_feature":"2048","num_nodes":"71","size_leaf_vector":"1"}},{"base_weights":[2.2776748E-1,-1.2271095E1,4.6833603E1,-1.8595222E1,4.0109707E1,4.088008E1,1.4371479E1,-2.1077427E1,9.5067245E1,6.002152E1,-9.684128E0,3.546897E1,8.043402E0,-2.5389921E1,2.8309212E1,3.372383E0,7.2767124E0,1.7716274E1,8.960683E1,-1.1877807E0,-1.6527704E1,4.4925354E1,9.182296E0,-1.3324693E1,-4.179495E1,3.676797E1,-1.9583788E0,3.0269148E1,-2.695155E0,9.337238E1,-3.7629128E-1,-6.4505963E0,5.190014E-1,-1.9868866E1,5.266665E-1,6.12123E1,2.8425455E1,2.2891432E1,-5.6169086E0,-1.6680624E1,2.8162321E1,-5.2831806E1,-1.5028493E1,2.6855814E1,6.2827644E1,1.0722783E1,5.9453037E1,6.157195E0,5.0218994E1,-8.677786E-1,2.621109E0,-5.5800617E-1,-1.6009196E0,6.578554E1,-9.1622126E-1,1.8753765E1,4.339941E1,2.832905E1,-1.309488E0,-1.3497917E1,1.6335266E1,-4.189737E-1,-1.7173365E0,2.7545257E0,-1.3623147E0,-3.5558712E0,-3.2900874E-2,-1.3223768E0,1.2340842E0,1.8259609E0,-1.3447107E0,4.305524E0,1.5839863E0,9.43396E-1,-1.1749176E0,4.2229714E0,3.128802E-1,3.5869873E0,6.5853024E-1,-6.6899024E-2,2.6262945E-1,4.3855004E0,5.260725E-1,8.8051033E-1,2.5188668E0,2.8678534E0,7.3634493E-1,2.123288E0,-9.573362E-1,-1.165494E0,2.0044708E0,1.4941903E0,-6.7816126E-1],"categories":[],"categories_nodes":[],"categories_segments":[],"categories_sizes":[],"default_left":[0,0,0,0,0,0,0,0,0,0,0,0,0,0,0,0,0,0,0,0,0,0,0,0,0,0,0,0,0,0,0,0,0,0,0,0,0,0,0,0,0,0,0,0,0,0,0,0,0,0,0,0,0,0,0,0,0,0,0,0,0,0,0,0,0,0,0,0,0,0,0,0,0,0,0,0,0,0,0,0,0,0,0,0,0,0,0,0,0,0,0,0,0],"id":4,"left_children":[1,3,5,7,9,11,-1,13,15,17,19,21,-1,23,25,-1,-1,27,29,31,33,35,37,39,41,43,-1,45,-1,47,-1,49,-1,51,-1,53,55,57,59,61,63,65,67,69,71,73,75,-1,77,-1,79,-1,-1,81,-1,83,85,87,-1,89,91,-1,-1,-1,-1,-1,-1,-1,-1,-1,-1,-1,-1,-1,-1,-1,-1,-1,-1,-1,-1,-1,-1,-1,-1,-1,-1,-1,-1,-1,-1,-1,-1],"loss_changes":[4.572703E5,2.0579756E5,1.7196E5,1.5802356E5,6.7010766E4,7.260984E4,0E0,1.161537E5,4.3110234E3,5.848997E4,1.1432764E3,3.786833E4,0E0,9.821041E4,2.33737E4,0E0,0E0,1.7366002E4,1.0646859E4,5.539923E2,1.0854365E3,2.8626844E4,8.64972E3,4.070654E4,6.1539094E4,8.386707E3,0E0,9.630396E3,0E0,1.244E3,0E0,5.1012323E2,0E0,4.0326514E2,0E0,2.0403797E4,7.5858594E3,5.8440312E3,3.853603E3,2.8781992E4,1.8552824E4,3.2432219E4,1.3945617E4,4.13466E3,5.635781E2,1.8449442E3,2.7994023E3,0E0,8.362383E2,0E0,2.7983551E1,0E0,0E0,1.311575E4,0E0,3.142121E3,1.2435586E3,5.505668E3,0E0,4.3846514E3,1.5033947E3,0E0,0E0,0E0,0E0,0E0,0E0,0E0,0E0,0E0,0E0,0E0,0E0,0E0,0E0,0E0,0E0,0E0,0E0,0E0,0E0,0E0,0E0,0E0,0E0,0E0,0E0,0E0,0E0,0E0,0E0,0E0,0E0],"parents":[2147483647,0,0,1,1,2,2,3,3,4,4,5,5,7,7,8,8,9,9,10,10,11,11,13,13,14,14,17,17,18,18,19,19,20,20,21,21,22,22,23,23,24,24,25,25,27,27,29,29,31,31,33,33,35,35,36,36,37,37,38,38,39,39,40,40,41,41,42,42,43,43,44,44,45,45,46,46,48,48,50,50,53,53,55,55,56,56,57,57,59,59,60,60],"right_children":[2,4,6,8,10,12,-1,14,16,18,20,22,-1,24,26,-1,-1,28,30,32,34,36,38,40,42,44,-1,46,-1,48,-1,50,-1,52,-1,54,56,58,60,62,64,66,68,70,72,74,76,-1,78,-1,80,-1,-1,82,-1,84,86,88,-1,90,92,-1,-1,-1,-1,-1,-1,-1,-1,-1,-1,-1,-1,-1,-1,-1,-1,-1,-1,-1,-1,-1,-1,-1,-1,-1,-1,-1,-1,-1,-1,-1,-1],"split_conditions":[2E0,1E0,1E0,2E0,2E0,2E0,1.4371479E1,1E0,1E0,1E0,2E0,2E0,8.043402E0,1E0,1E0,3.372383E0,7.2767124E0,1E0,1E0,1E0,3E0,1E0,1E0,1E0,1E0,1E0,-1.9583788E0,1E0,-2.695155E0,3E0,-3.7629128E-1,1E0,5.190014E-1,1E0,5.266665E-1,2E0,1E0,1E0,3E0,1E0,1E0,1E0,1E0,1E0,1E0,1E0,2E0,6.157195E0,1E0,-8.677786E-1,2E0,-5.5800617E-1,-1.6009196E0,2E0,-9.1622126E-1,1E0,1E0,1E0,-1.309488E0,1E0,1E0,-4.189737E-1,-1.7173365E0,2.7545257E0,-1.3623147E0,-3.5558712E0,-3.2900874E-2,-1.3223768E0,1.2340842E0,1.8259609E0,-1.3447107E0,4.305524E0,1.5839863E0,9.43396E-1,-1.1749176E0,4.2229714E0,3.128802E-1,3.5869873E0,6.5853024E-1,-6.6899024E-2,2.6262945E-1,4.3855004E0,5.260725E-1,8.8051033E-1,2.5188668E0,2.8678534E0,7.3634493E-1,2.123288E0,-9.573362E-1,-1.165494E0,2.0044708E0,1.4941903E0,-6.7816126E-1],"split_indices":[1087,162,1344,641,1138,1444,0,145,807,289,2029,289,0,1928,1567,0,0,554,517,1835,162,145,344,203,694,344,0,680,0,1866,0,80,0,344,0,80,807,433,289,935,1835,381,1160,1862,1823,895,131,0,935,0,80,0,0,231,0,1025,935,293,0,1062,293,0,0,0,0,0,0,0,0,0,0,0,0,0,0,0,0,0,0,0,0,0,0,0,0,0,0,0,0,0,0,0,0],"split_type":[0,0,0,0,0,0,0,0,0,0,0,0,0,0,0,0,0,0,0,0,0,0,0,0,0,0,0,0,0,0,0,0,0,0,0,0,0,0,0,0,0,0,0,0,0,0,0,0,0,0,0,0,0,0,0,0,0,0,0,0,0,0,0,0,0,0,0,0,0,0,0,0,0,0,0,0,0,0,0,0,0,0,0,0,0,0,0,0,0,0,0,0,0],"sum_hessian":[7.83E2,6.18E2,1.65E2,5.52E2,6.6E1,1.61E2,4E0,5.41E2,1.1E1,4.7E1,1.9E1,1.53E2,8E0,4.98E2,4.3E1,5E0,6E0,2E1,2.7E1,9E0,1E1,1.12E2,4.1E1,2.88E2,2.1E2,3.8E1,5E0,1.7E1,3E0,2.6E1,1E0,6E0,3E0,9E0,1E0,5.5E1,5.7E1,2.1E1,2E1,2.67E2,2.1E1,1.48E2,6.2E1,2.9E1,9E0,1.1E1,6E0,2.2E1,4E0,3E0,3E0,4E0,5E0,5.2E1,3E0,3.6E1,2.1E1,1.9E1,2E0,1.5E1,5E0,1.4E2,1.27E2,1.6E1,5E0,1.37E2,1.1E1,5.3E1,9E0,2.8E1,1E0,7E0,2E0,1E1,1E0,5E0,1E0,3E0,1E0,1E0,2E0,4.8E1,4E0,3.1E1,5E0,1.9E1,2E0,1.7E1,2E0,1.4E1,1E0,4E0,1E0],"tree_param":{"num_deleted":"0","num_feature":"2048","num_nodes":"93","size_leaf_vector":"1"}},{"base_weights":[3.752716E-1,-1.3233411E1,2.5241587E1,-2.3594334E1,3.0910234E1,1.6232573E1,1.2441837E2,-8.909066E0,-4.4033607E1,2.4809908E1,5.0846534E0,2.4325651E1,-1.5984995E1,8.959999E1,1.0026946E1,-1.0388141E1,6.98068E0,-3.4611385E1,-7.329458E1,2.0186148E1,4.7058167E0,3.0178225E1,-2.5728863E1,-2.1083233E1,3.1483293E0,1.124507E2,1.62072E0,-1.8460241E1,1.3469141E1,-1.062947E1,-4.689365E1,-7.76057E1,3.0928373E0,2.2756287E1,-2.222258E0,2.6255766E1,4.7371955E0,-3.0330421E1,2.2117324E0,-2.5826815E1,2.4167876E0,7.420919E0,1.6830573E0,-2.1862646E1,3.549125E1,7.614231E0,4.836304E0,-1.4888407E1,3.4548616E0,-5.4081657E1,-1.1616764E1,-8.178784E1,7.715086E-2,2.0068727E1,4.250465E0,2.2084146E1,6.528808E1,-3.3143482E1,8.088693E-1,-3.4320206E1,1.0978088E0,-1.5213945E0,3.167132E0,2.4497669E0,7.693787E-1,1.0245568E0,-2.2102163E0,-2.0411824E-1,-2.6413212E0,-3.8608127E0,-6.1808866E-1,-1.1900398E0,3.1274369E0,-5.303407E0,1.1658932E0,1.9419953E0,9.879629E-1,1.5664856E0,-1.2524084E0,2.2894044E0,1.1039386E1,-2.3394127E0,2.5170618E-1,-2.4668696E0,3.0669826E-1,7.632954E-1,-2.2703629E0],"categories":[],"categories_nodes":[],"categories_segments":[],"categories_sizes":[],"default_left":[0,0,0,0,0,0,0,0,0,0,0,0,0,0,0,0,0,0,0,0,0,0,0,0,0,0,0,0,0,0,0,0,0,0,0,0,0,0,0,0,0,0,0,0,0,0,0,0,0,0,0,0,0,0,0,0,0,0,0,0,0,0,0,0,0,0,0,0,0,0,0,0,0,0,0,0,0,0,0,0,0,0,0,0,0,0,0],"id":5,"left_children":[1,3,5,7,9,11,13,15,17,19,-1,21,23,25,-1,27,-1,29,31,33,-1,35,37,39,-1,41,-1,43,45,47,49,51,-1,53,-1,55,-1,57,-1,59,-1,-1,-1,61,63,65,-1,67,-1,69,71,73,-1,75,-1,77,79,81,-1,83,85,-1,-1,-1,-1,-1,-1,-1,-1,-1,-1,-1,-1,-1,-1,-1,-1,-1,-1,-1,-1,-1,-1,-1,-1,-1,-1],"loss_changes":[2.6597628E5,2.3307273E5,2.4636923E5,1.2327205E5,2.7914734E4,6.713809E4,1.4672281E4,4.42233E4,4.4884156E4,1.9074098E4,0E0,6.0830758E4,1.8680324E4,1.7431805E4,0E0,4.6274875E4,0E0,3.838242E4,2.5565312E4,1.2571961E4,0E0,3.1028766E4,7.268866E3,1.4905258E4,0E0,2.3462656E3,0E0,3.363402E4,2.2285926E4,1.3756105E4,2.143239E4,1.3290344E4,0E0,8.266496E3,0E0,2.6401758E4,0E0,2.9873887E3,0E0,1.0557018E4,0E0,0E0,0E0,3.2216242E4,4.7770117E2,2.2192281E4,0E0,1.3891696E4,0E0,2.420611E4,8.324746E3,1.3885375E4,0E0,3.0646992E3,0E0,2.039961E4,4.458742E4,3.3895332E3,0E0,7.3646836E3,5.4555347E3,0E0,0E0,0E0,0E0,0E0,0E0,0E0,0E0,0E0,0E0,0E0,0E0,0E0,0E0,0E0,0E0,0E0,0E0,0E0,0E0,0E0,0E0,0E0,0E0,0E0,0E0],"parents":[2147483647,0,0,1,1,2,2,3,3,4,4,5,5,6,6,7,7,8,8,9,9,11,11,12,12,13,13,15,15,17,17,18,18,19,19,21,21,22,22,23,23,25,25,27,27,28,28,29,29,30,30,31,31,33,33,35,35,37,37,39,39,43,43,44,44,45,45,47,47,49,49,50,50,51,51,53,53,55,55,56,56,57,57,59,59,60,60],"right_children":[2,4,6,8,10,12,14,16,18,20,-1,22,24,26,-1,28,-1,30,32,34,-1,36,38,40,-1,42,-1,44,46,48,50,52,-1,54,-1,56,-1,58,-1,60,-1,-1,-1,62,64,66,-1,68,-1,70,72,74,-1,76,-1,78,80,82,-1,84,86,-1,-1,-1,-1,-1,-1,-1,-1,-1,-1,-1,-1,-1,-1,-1,-1,-1,-1,-1,-1,-1,-1,-1,-1,-1,-1],"split_conditions":[1E0,1E0,2E0,1E0,1E0,2E0,1E0,1E0,1E0,2E0,5.0846534E0,1E0,2E0,1E0,1.0026946E1,3E0,6.98068E0,2E0,1E0,2E0,4.7058167E0,1E0,1E0,2E0,3.1483293E0,1E0,1.62072E0,1E0,1E0,2E0,3E0,1E0,3.0928373E0,1E0,-2.222258E0,1E0,4.7371955E0,1E0,2.2117324E0,1E0,2.4167876E0,7.420919E0,1.6830573E0,2E0,1E0,1E0,4.836304E0,1E0,3.4548616E0,1E0,1E0,1E0,7.715086E-2,3E0,4.250465E0,1E0,2E0,2E0,8.088693E-1,1E0,1E0,-1.5213945E0,3.167132E0,2.4497669E0,7.693787E-1,1.0245568E0,-2.2102163E0,-2.0411824E-1,-2.6413212E0,-3.8608127E0,-6.1808866E-1,-1.1900398E0,3.1274369E0,-5.303407E0,1.1658932E0,1.9419953E0,9.879629E-1,1.5664856E0,-1.2524084E0,2.2894044E0,1.1039386E1,-2.3394127E0,2.5170618E-1,-2.4668696E0,3.0669826E-1,7.632954E-1,-2.2703629E0],"split_indices":[1097,1104,1724,1928,129,1285,1096,1780,1259,1096,0,656,836,1225,0,980,0,448,247,656,0,129,456,775,0,493,0,624,145,1545,980,102,0,1179,0,1225,0,145,0,392,0,0,0,1545,392,591,0,699,0,1724,339,1376,0,1873,0,504,1096,305,0,1104,293,0,0,0,0,0,0,0,0,0,0,0,0,0,0,0,0,0,0,0,0,0,0,0,0,0,0],"split_type":[0,0,0,0,0,0,0,0,0,0,0,0,0,0,0,0,0,0,0,0,0,0,0,0,0,0,0,0,0,0,0,0,0,0,0,0,0,0,0,0,0,0,0,0,0,0,0,0,0,0,0,0,0,0,0,0,0,0,0,0,0,0,0,0,0,0,0,0,0,0,0,0,0,0,0,0,0,0,0,0,0,0,0,0,0,0,0],"sum_hessian":[7.84E2,5.07E2,2.77E2,4.11E2,9.6E1,2.55E2,2.2E1,2.4E2,1.71E2,8.7E1,9E0,2.04E2,5.1E1,1.3E1,9E0,2.38E2,2E0,1.31E2,4E1,8.1E1,6E0,1.83E2,2.1E1,4.8E1,3E0,9E0,4E0,1.78E2,6E1,4.5E1,8.6E1,3.9E1,1E0,7.8E1,3E0,1.7E2,1.3E1,2E1,1E0,4.5E1,3E0,8E0,1E0,1.68E2,1E1,5.6E1,4E0,4.3E1,2E0,7.1E1,1.5E1,3.7E1,2E0,7.5E1,3E0,1.55E2,1.5E1,1.9E1,1E0,3.4E1,1.1E1,1.63E2,5E0,8E0,2E0,4.7E1,9E0,3.1E1,1.2E1,6E1,1.1E1,1.4E1,1E0,3.6E1,1E0,1.9E1,5.6E1,1.45E2,1E1,1.3E1,2E0,1.7E1,2E0,3E1,4E0,9E0,2E0],"tree_param":{"num_deleted":"0","num_feature":"2048","num_nodes":"87","size_leaf_vector":"1"}},{"base_weights":[4.5410538E-1,-8.707497E0,4.0611443E1,4.194809E0,-3.1263004E1,3.518628E1,9.8260254E1,5.3624034E-1,7.907097E1,-3.6779163E0,-3.8972683E1,3.066111E1,4.9294405E0,1.1516749E2,3.5653915E1,-1.8577353E0,6.496428E1,1.0557793E2,5.0195187E1,-1.0994784E1,6.72996E1,-4.0922684E1,3.824181E1,2.6283762E1,6.601511E1,7.9472404E0,3.01123E0,2.6343188E0,4.9718854E-1,-2.8653743E0,4.596889E0,9.1408134E1,1.447112E1,7.0252476E0,1.5390164E0,5.4946053E1,8.380179E-2,-2.0535221E1,1.7039332E0,4.6614327E0,1.1736497E0,-3.5728672E1,-7.612891E1,3.6260123E0,-1.2875654E0,2.3635523E1,4.312802E0,4.3038883E0,9.4672835E-1,-4.287486E-1,-3.1754013E1,1.00108025E2,6.8029743E-1,-1.4541016E0,2.9352121E0,6.1159096E1,2.0062582E1,-2.5948603E1,3.311171E0,-3.0225216E1,-6.496761E1,-8.147839E1,1.129525E0,2.1298548E1,6.7050125E1,6.339957E-1,-6.8733764E-1,-4.8948874E0,7.1597196E-2,6.8636656E0,9.588447E-1,4.9143213E-1,-1.2096561E0,4.1052914E0,8.9355826E-1,-7.033783E-1,2.5808384E0,-1.9276491E0,7.4299455E-1,-2.1009023E0,1.0939393E-1,-4.477014E0,-1.5469252E0,-5.190738E0,-1.4659678E0,1.3996232E0,-1.5002974E0,6.6903462E0,2.8139043E-1],"categories":[],"categories_nodes":[],"categories_segments":[],"categories_sizes":[],"default_left":[0,0,0,0,0,0,0,0,0,0,0,0,0,0,0,0,0,0,0,0,0,0,0,0,0,0,0,0,0,0,0,0,0,0,0,0,0,0,0,0,0,0,0,0,0,0,0,0,0,0,0,0,0,0,0,0,0,0,0,0,0,0,0,0,0,0,0,0,0,0,0,0,0,0,0,0,0,0,0,0,0,0,0,0,0,0,0,0,0],"id":6,"left_children":[1,3,5,7,9,11,13,15,17,19,21,23,-1,25,27,29,31,33,35,37,39,41,43,45,47,-1,-1,-1,-1,49,-1,51,53,-1,-1,55,-1,57,-1,-1,-1,59,61,-1,-1,63,-1,-1,-1,65,67,69,-1,71,-1,73,75,77,-1,79,81,83,-1,85,87,-1,-1,-1,-1,-1,-1,-1,-1,-1,-1,-1,-1,-1,-1,-1,-1,-1,-1,-1,-1,-1,-1,-1,-1],"loss_changes":[2.891595E5,1.863827E5,4.220472E4,1.1172495E5,4.9409266E4,2.4351688E4,8.59582E3,6.0273957E4,9.243266E3,2.7745264E4,2.8968375E4,1.745471E4,0E0,1.2085781E3,3.9121826E2,2.8907805E4,1.73705E4,2.3412031E3,2.47917E3,1.8103299E4,3.9291602E2,2.9829375E4,7.052134E3,1.1074398E4,9.1740625E2,0E0,0E0,0E0,0E0,2.6242156E4,0E0,5.2117188E3,3.1812363E3,0E0,0E0,9.4031836E2,0E0,1.6917912E4,0E0,0E0,0E0,2.3300031E4,1.2565477E4,0E0,0E0,9.428027E3,0E0,0E0,0E0,3.880195E4,4.4654766E4,5.027117E3,0E0,9.895424E2,0E0,7.9784375E2,2.4693862E3,7.3013457E3,0E0,1.4843734E4,4.771453E3,1.4415625E2,0E0,5.8457383E3,1.2083551E4,0E0,0E0,0E0,0E0,0E0,0E0,0E0,0E0,0E0,0E0,0E0,0E0,0E0,0E0,0E0,0E0,0E0,0E0,0E0,0E0,0E0,0E0,0E0,0E0],"parents":[2147483647,0,0,1,1,2,2,3,3,4,4,5,5,6,6,7,7,8,8,9,9,10,10,11,11,13,13,14,14,15,15,16,16,17,17,18,18,19,19,20,20,21,21,22,22,23,23,24,24,29,29,31,31,32,32,35,35,37,37,41,41,42,42,45,45,49,49,50,50,51,51,53,53,55,55,56,56,57,57,59,59,60,60,61,61,63,63,64,64],"right_children":[2,4,6,8,10,12,14,16,18,20,22,24,-1,26,28,30,32,34,36,38,40,42,44,46,48,-1,-1,-1,-1,50,-1,52,54,-1,-1,56,-1,58,-1,-1,-1,60,62,-1,-1,64,-1,-1,-1,66,68,70,-1,72,-1,74,76,78,-1,80,82,84,-1,86,88,-1,-1,-1,-1,-1,-1,-1,-1,-1,-1,-1,-1,-1,-1,-1,-1,-1,-1,-1,-1,-1,-1,-1,-1],"split_conditions":[1E0,1E0,1E0,2E0,1E0,1E0,1E0,2E0,1E0,1E0,1E0,1E0,4.9294405E0,1E0,1E0,2E0,1E0,1E0,1E0,1E0,1E0,3E0,2E0,2E0,1E0,7.9472404E0,3.01123E0,2.6343188E0,4.9718854E-1,1E0,4.596889E0,1E0,1E0,7.0252476E0,1.5390164E0,3E0,8.380179E-2,2E0,1.7039332E0,4.6614327E0,1.1736497E0,3E0,3E0,3.6260123E0,-1.2875654E0,1E0,4.312802E0,4.3038883E0,9.4672835E-1,1E0,2E0,1E0,6.8029743E-1,2E0,2.9352121E0,2E0,1E0,1E0,3.311171E0,2E0,2E0,2E0,1.129525E0,1E0,1E0,6.339957E-1,-6.8733764E-1,-4.8948874E0,7.1597196E-2,6.8636656E0,9.588447E-1,4.9143213E-1,-1.2096561E0,4.1052914E0,8.9355826E-1,-7.033783E-1,2.5808384E0,-1.9276491E0,7.4299455E-1,-2.1009023E0,1.0939393E-1,-4.477014E0,-1.5469252E0,-5.190738E0,-1.4659678E0,1.3996232E0,-1.5002974E0,6.6903462E0,2.8139043E-1],"split_indices":[323,1928,342,725,1866,1439,71,881,1866,1470,1177,725,0,1266,389,1605,1266,1104,1104,647,1665,1155,545,881,34,0,0,0,0,1101,0,647,1155,0,0,1155,0,725,0,0,0,1928,1062,0,0,1733,0,0,0,715,1101,727,0,1866,0,732,1733,1013,0,389,1155,1619,0,1325,263,0,0,0,0,0,0,0,0,0,0,0,0,0,0,0,0,0,0,0,0,0,0,0,0],"split_type":[0,0,0,0,0,0,0,0,0,0,0,0,0,0,0,0,0,0,0,0,0,0,0,0,0,0,0,0,0,0,0,0,0,0,0,0,0,0,0,0,0,0,0,0,0,0,0,0,0,0,0,0,0,0,0,0,0,0,0,0,0,0,0,0,0,0,0,0,0,0,0,0,0,0,0,0,0,0,0,0,0,0,0,0,0,0,0,0,0],"sum_hessian":[7.84E2,6.39E2,1.45E2,4.07E2,2.32E2,1.34E2,1.1E1,3.89E2,1.8E1,5.1E1,1.81E2,1.23E2,1.1E1,8E0,3E0,3.76E2,1.3E1,8E0,1E1,4.7E1,4E0,1.77E2,4E0,1.11E2,1.2E1,6E0,2E0,2E0,1E0,3.72E2,4E0,8E0,5E0,7E0,1E0,9E0,1E0,3.8E1,9E0,3E0,1E0,1.56E2,2.1E1,3E0,1E0,1.06E2,5E0,1.1E1,1E0,3.44E2,2.8E1,7E0,1E0,4E0,1E0,7E0,2E0,3.6E1,2E0,1.33E2,2.3E1,2E1,1E0,1.02E2,4E0,1.72E2,1.72E2,1.1E1,1.7E1,6E0,1E0,3E0,1E0,6E0,1E0,1E0,1E0,3.2E1,4E0,1.2E2,1.3E1,1.9E1,4E0,1.9E1,1E0,1E2,2E0,2E0,2E0],"tree_param":{"num_deleted":"0","num_feature":"2048","num_nodes":"89","size_leaf_vector":"1"}},{"base_weights":[3.6987942E-1,-1.9150304E0,7.2709946E1,-4.5689816E0,5.8605145E1,4.937875E1,1.06108734E2,-1.499893E0,-5.010567E1,7.4184166E1,-2.5178304E0,5.5175304E1,-1.1719228E0,7.215023E0,9.289345E-1,-2.7672637E0,5.855648E0,-6.0584503E1,-2.9441324E-1,9.605655E1,2.3093264E0,5.992904E1,-3.5488582E-1,-8.5735235E0,1.159881E1,-7.225721E1,-2.0675207E1,-6.2589493E0,1.4792494E0,1.0550398E2,1.6800537E1,6.3960606E1,2.3453306E-1,-1.0379571E1,5.254147E1,4.0723423E1,3.5804174E0,-7.453699E1,-2.6275447E-1,1.7587106E0,-3.4166603E0,-1.6088675E1,9.661728E-1,6.7991014E0,1.7717026E0,8.118774E-2,1.4910097E0,6.845757E1,3.1184068E-1,-5.417489E-1,-4.0473275E0,4.416361E0,-6.7236483E-1,1.8760931E0,1.0553878E1,1.1922038E-1,5.4258666E0,-4.835827E0,-1.490655E0,-2.5105277E-1,6.744353E-1,-1.321549E0,2.9271033E-1,4.539275E0,6.5907663E-1],"categories":[],"categories_nodes":[],"categories_segments":[],"categories_sizes":[],"default_left":[0,0,0,0,0,0,0,0,0,0,0,0,0,0,0,0,0,0,0,0,0,0,0,0,0,0,0,0,0,0,0,0,0,0,0,0,0,0,0,0,0,0,0,0,0,0,0,0,0,0,0,0,0,0,0,0,0,0,0,0,0,0,0,0,0],"id":7,"left_children":[1,3,5,7,9,11,13,15,17,19,-1,21,-1,-1,-1,23,-1,25,27,29,-1,31,-1,33,35,37,39,41,-1,43,45,47,-1,49,51,53,55,57,-1,59,-1,61,-1,-1,-1,-1,-1,63,-1,-1,-1,-1,-1,-1,-1,-1,-1,-1,-1,-1,-1,-1,-1,-1,-1],"loss_changes":[1.2956171E5,1.2233714E5,1.3462094E4,1.01807086E5,5.233011E4,7.3582734E3,6.1109453E3,8.29258E4,2.39925E4,1.9206953E4,0E0,4.6808594E3,0E0,0E0,0E0,5.648674E4,0E0,1.6208344E4,1.4370326E3,1.09565E4,0E0,2.929879E3,0E0,5.3746875E4,4.5393055E4,4.1848125E3,7.7441646E3,1.9592017E3,0E0,9.288281E2,2.9897986E2,3.1047695E3,0E0,4.2779832E4,1.693959E4,5.2374125E4,2.1272969E4,2.3688125E3,0E0,4.099206E2,0E0,7.345846E2,0E0,0E0,0E0,0E0,0E0,2.2204453E3,0E0,0E0,0E0,0E0,0E0,0E0,0E0,0E0,0E0,0E0,0E0,0E0,0E0,0E0,0E0,0E0,0E0],"parents":[2147483647,0,0,1,1,2,2,3,3,4,4,5,5,6,6,7,7,8,8,9,9,11,11,15,15,17,17,18,18,19,19,21,21,23,23,24,24,25,25,26,26,27,27,29,29,30,30,31,31,33,33,34,34,35,35,36,36,37,37,39,39,41,41,47,47],"right_children":[2,4,6,8,10,12,14,16,18,20,-1,22,-1,-1,-1,24,-1,26,28,30,-1,32,-1,34,36,38,40,42,-1,44,46,48,-1,50,52,54,56,58,-1,60,-1,62,-1,-1,-1,-1,-1,64,-1,-1,-1,-1,-1,-1,-1,-1,-1,-1,-1,-1,-1,-1,-1,-1,-1],"split_conditions":[2E0,1E0,1E0,1E0,2E0,2E0,2E0,2E0,1E0,2E0,-2.5178304E0,2E0,-1.1719228E0,7.215023E0,9.289345E-1,1E0,5.855648E0,1E0,2E0,1E0,2.3093264E0,1E0,-3.5488582E-1,1E0,2E0,1E0,1E0,2E0,1.4792494E0,1E0,1E0,1E0,2.3453306E-1,1E0,1E0,2E0,2E0,2E0,-2.6275447E-1,1E0,-3.4166603E0,1E0,9.661728E-1,6.7991014E0,1.7717026E0,8.118774E-2,1.4910097E0,1E0,3.1184068E-1,-5.417489E-1,-4.0473275E0,4.416361E0,-6.7236483E-1,1.8760931E0,1.0553878E1,1.1922038E-1,5.4258666E0,-4.835827E0,-1.490655E0,-2.5105277E-1,6.744353E-1,-1.321549E0,2.9271033E-1,4.539275E0,6.5907663E-1],"split_indices":[170,1730,1184,1755,486,1036,835,62,289,289,0,809,0,0,0,289,0,1062,548,449,0,1277,0,816,289,1586,1471,809,0,1670,289,449,0,160,961,1025,612,896,0,896,0,1184,0,0,0,0,0,961,0,0,0,0,0,0,0,0,0,0,0,0,0,0,0,0,0],"split_type":[0,0,0,0,0,0,0,0,0,0,0,0,0,0,0,0,0,0,0,0,0,0,0,0,0,0,0,0,0,0,0,0,0,0,0,0,0,0,0,0,0,0,0,0,0,0,0,0,0,0,0,0,0,0,0,0,0,0,0,0,0,0,0,0,0],"sum_hessian":[7.82E2,7.59E2,2.3E1,7.28E2,3.1E1,1.5E1,8E0,6.83E2,4.5E1,2.7E1,4E0,1.4E1,1E0,7E0,1E0,6.75E2,8E0,3.7E1,8E0,1.6E1,1.1E1,1.3E1,1E0,4.81E2,1.94E2,2.8E1,9E0,7E0,1E0,1.4E1,2E0,1.2E1,1E0,4.68E2,1.3E1,4.1E1,1.53E2,2.7E1,1E0,6E0,3E0,5E0,2E0,1.3E1,1E0,1E0,1E0,1.1E1,1E0,4.55E2,1.3E1,1E1,3E0,3.9E1,2E0,1.51E2,2E0,2.5E1,2E0,4E0,2E0,4E0,1E0,1E1,1E0],"tree_param":{"num_deleted":"0","num_feature":"2048","num_nodes":"65","size_leaf_vector":"1"}},{"base_weights":[2.0159054E-1,-2.7436643E0,5.793878E1,-8.738174E0,2.4407368E1,3.0572515E1,5.842936E0,-1.19955225E1,6.2161343E1,3.2377846E1,-1.3805165E1,3.6102306E1,-2.8411846E0,-1.3638784E1,6.760682E1,6.6407555E1,3.7779978E-1,2.7448809E1,5.803482E0,-1.705253E1,1.9453247E0,1.8453314E1,5.2073727E1,-1.59734745E1,3.425191E1,5.950857E0,6.0128313E-1,4.2550898E0,7.258519E-1,2.492538E1,6.5466747E0,-1.8532824E1,3.4540632E-1,8.549292E-1,-1.4064521E0,2.2108479E1,1.1832682E-1,3.558939E0,1.2351296E0,-9.838907E0,-3.0920065E1,8.6425385E1,1.8465876E1,2.1975697E1,5.7205933E1,-1.4841459E1,-2.0757926E0,1.5449722E0,-5.598971E-2,-1.9359744E-1,2.0467049E-1,-7.367235E-1,3.0071175E0,-2.3069818E0,6.6470915E-1,1.6070634E0,5.8273377E0,7.127389E-1,2.9506376E0,1.2780129E0,5.1020603E0,3.0211368E-1,3.9924185E0,-9.786188E-1,-4.1293554E-2],"categories":[],"categories_nodes":[],"categories_segments":[],"categories_sizes":[],"default_left":[0,0,0,0,0,0,0,0,0,0,0,0,0,0,0,0,0,0,0,0,0,0,0,0,0,0,0,0,0,0,0,0,0,0,0,0,0,0,0,0,0,0,0,0,0,0,0,0,0,0,0,0,0,0,0,0,0,0,0,0,0,0,0,0,0],"id":8,"left_children":[1,3,5,7,9,11,-1,13,15,17,19,21,-1,23,25,27,-1,29,-1,31,33,35,37,39,41,-1,-1,-1,-1,43,-1,45,-1,-1,-1,47,49,-1,-1,51,53,55,57,59,61,63,-1,-1,-1,-1,-1,-1,-1,-1,-1,-1,-1,-1,-1,-1,-1,-1,-1,-1,-1],"loss_changes":[1.3313864E5,1.21467336E5,3.4280305E4,1.4185269E5,4.156422E4,1.1324719E4,0E0,7.744448E4,6.030242E3,3.0926547E4,1.2607144E3,5.240416E3,0E0,6.4726008E4,1.8404922E4,1.6677031E3,0E0,1.7915625E4,0E0,7.7137646E2,1.748713E3,8.01593E2,6.360508E2,4.9942375E4,2.0641611E4,0E0,0E0,0E0,0E0,8.550262E3,0E0,5.3999365E2,0E0,0E0,0E0,6.332471E2,4.074304E1,0E0,0E0,4.5162746E4,4.0443812E4,1.349961E2,3.9257202E3,6.881461E3,2.5339219E3,1.9327148E2,0E0,0E0,0E0,0E0,0E0,0E0,0E0,0E0,0E0,0E0,0E0,0E0,0E0,0E0,0E0,0E0,0E0,0E0,0E0],"parents":[2147483647,0,0,1,1,2,2,3,3,4,4,5,5,7,7,8,8,9,9,10,10,11,11,13,13,14,14,15,15,17,17,19,19,20,20,21,21,22,22,23,23,24,24,29,29,31,31,35,35,36,36,39,39,40,40,41,41,42,42,43,43,44,44,45,45],"right_children":[2,4,6,8,10,12,-1,14,16,18,20,22,-1,24,26,28,-1,30,-1,32,34,36,38,40,42,-1,-1,-1,-1,44,-1,46,-1,-1,-1,48,50,-1,-1,52,54,56,58,60,62,64,-1,-1,-1,-1,-1,-1,-1,-1,-1,-1,-1,-1,-1,-1,-1,-1,-1,-1,-1],"split_conditions":[2E0,2E0,1E0,1E0,2E0,1E0,5.842936E0,1E0,3E0,1E0,1E0,1E0,-2.8411846E0,2E0,1E0,2E0,3.7779978E-1,2E0,5.803482E0,1E0,1E0,1E0,3E0,1E0,1E0,5.950857E0,6.0128313E-1,4.2550898E0,7.258519E-1,2E0,6.5466747E0,1E0,3.4540632E-1,8.549292E-1,-1.4064521E0,1E0,1E0,3.558939E0,1.2351296E0,1E0,2E0,1E0,1E0,2E0,1E0,1E0,-2.0757926E0,1.5449722E0,-5.598971E-2,-1.9359744E-1,2.0467049E-1,-7.367235E-1,3.0071175E0,-2.3069818E0,6.6470915E-1,1.6070634E0,5.8273377E0,7.127389E-1,2.9506376E0,1.2780129E0,5.1020603E0,3.0211368E-1,3.9924185E0,-9.786188E-1,-4.1293554E-2],"split_indices":[1039,896,915,1656,1985,239,0,1518,1985,1184,114,405,0,1184,1226,1817,0,1113,0,334,213,114,1985,114,14,0,0,0,0,960,0,1746,0,0,0,14,1361,0,0,430,1062,1120,1745,112,1062,1060,0,0,0,0,0,0,0,0,0,0,0,0,0,0,0,0,0,0,0],"split_type":[0,0,0,0,0,0,0,0,0,0,0,0,0,0,0,0,0,0,0,0,0,0,0,0,0,0,0,0,0,0,0,0,0,0,0,0,0,0,0,0,0,0,0,0,0,0,0,0,0,0,0,0,0,0,0,0,0,0,0,0,0,0,0,0,0],"sum_hessian":[7.81E2,7.44E2,3.7E1,6.1E2,1.34E2,2.2E1,1.5E1,5.84E2,2.6E1,1.11E2,2.3E1,2.1E1,1E0,5.73E2,1.1E1,2.4E1,2E0,1.04E2,7E0,1.9E1,4E0,1.1E1,1E1,5.47E2,2.6E1,7E0,4E0,2.3E1,1E0,1.02E2,2E0,1.8E1,1E0,3E0,1E0,9E0,2E0,8E0,2E0,3.89E2,1.58E2,5E0,2.1E1,9.5E1,7E0,1.6E1,2E0,8E0,1E0,1E0,1E0,3.77E2,1.2E1,1.38E2,2E1,1E0,4E0,1.8E1,3E0,9.4E1,1E0,1E0,6E0,1.5E1,1E0],"tree_param":{"num_deleted":"0","num_feature":"2048","num_nodes":"65","size_leaf_vector":"1"}},{"base_weights":[5.382201E-1,-1.0807894E1,2.1310284E1,-1.8582052E1,3.238754E1,3.0388536E1,-1.5221152E1,-2.1088028E1,5.248994E1,2.6536072E1,4.093568E0,2.5121132E1,9.6965515E1,-1.981666E1,3.086563E0,-2.566518E1,1.0918129E1,3.9878447E0,-1.45425825E1,2.1490396E1,6.1692337E1,2.0817743E1,8.3266815E1,1.02679214E2,3.5124174E-1,-2.3645422E1,2.0585775E0,-2.7713001E1,3.7054943E1,6.914971E-1,4.2331497E1,-1.2572914E0,-1.0360609E-1,1.6125572E1,6.057253E1,4.1255465E0,9.557356E-1,2.459078E1,-2.971872E1,9.133576E1,-6.7469805E-1,6.640967E0,1.5569339E0,-2.6311012E1,3.3367128E0,-2.3361696E1,-6.3397263E1,4.0101784E1,1.10414416E-1,4.848445E0,-3.3426423E0,1.7538437E1,6.833366E1,1.8693268E1,-1.2962952E0,1.0824627E0,4.047926E0,2.048099E1,4.114396E0,-3.6091602E1,3.542981E-1,9.5575005E1,1.2622378E0,-1.4179641E1,-4.1810955E1,-1.5757546E0,1.9872483E0,-4.4002147E0,-8.48113E-1,1.6936898E0,3.132842E0,6.4738065E-1,-1.3666977E0,1.5561438E0,-1.069836E0,4.627093E0,1.221622E0,1.2333558E0,-9.9474835E-1,-2.017208E-1,3.8253605E-1,1.0872577E0,5.476378E0,-2.6263206E0,-2.521555E-1,6.224668E0,1.5400331E0,-1.2498118E0,4.4166037E-1,-2.8866313E0,2.283784E-2],"categories":[],"categories_nodes":[],"categories_segments":[],"categories_sizes":[],"default_left":[0,0,0,0,0,0,0,0,0,0,0,0,0,0,0,0,0,0,0,0,0,0,0,0,0,0,0,0,0,0,0,0,0,0,0,0,0,0,0,0,0,0,0,0,0,0,0,0,0,0,0,0,0,0,0,0,0,0,0,0,0,0,0,0,0,0,0,0,0,0,0,0,0,0,0,0,0,0,0,0,0,0,0,0,0,0,0,0,0,0,0],"id":9,"left_children":[1,3,5,7,9,11,13,15,17,19,-1,21,23,25,-1,27,29,-1,31,33,35,37,39,41,-1,43,-1,45,47,49,51,-1,-1,53,55,-1,-1,57,59,61,-1,-1,-1,63,-1,65,67,69,-1,71,-1,73,75,77,79,-1,-1,81,-1,83,-1,85,-1,87,89,-1,-1,-1,-1,-1,-1,-1,-1,-1,-1,-1,-1,-1,-1,-1,-1,-1,-1,-1,-1,-1,-1,-1,-1,-1,-1],"loss_changes":[1.8547653E5,1.7152816E5,9.265892E4,7.8048125E4,1.3424734E4,7.576753E4,1.7629781E4,6.1516E4,1.2423672E4,1.0736527E4,0E0,5.0313062E4,7.771703E3,1.1497406E4,0E0,4.803578E4,1.6997137E4,0E0,1.8335614E2,1.1813027E4,6.326914E2,3.79126E4,1.1615734E4,1.737625E3,0E0,1.1687039E4,0E0,5.3640875E4,1.219125E3,9.509417E3,7.182285E3,0E0,0E0,2.4846055E3,1.7875195E2,0E0,0E0,2.9585086E4,3.36317E3,1.9847891E3,0E0,0E0,0E0,8.620879E3,0E0,3.4097688E4,1.2542172E4,7.794141E1,0E0,5.996011E3,0E0,2.4826042E3,2.5425586E2,2.1045996E3,1.349357E2,0E0,0E0,3.2786555E4,0E0,2.1396562E3,0E0,1.1102188E3,0E0,3.7506587E3,3.9663086E3,0E0,0E0,0E0,0E0,0E0,0E0,0E0,0E0,0E0,0E0,0E0,0E0,0E0,0E0,0E0,0E0,0E0,0E0,0E0,0E0,0E0,0E0,0E0,0E0,0E0,0E0],"parents":[2147483647,0,0,1,1,2,2,3,3,4,4,5,5,6,6,7,7,8,8,9,9,11,11,12,12,13,13,15,15,16,16,18,18,19,19,20,20,21,21,22,22,23,23,25,25,27,27,28,28,29,29,30,30,33,33,34,34,37,37,38,38,39,39,43,43,45,45,46,46,47,47,49,49,51,51,52,52,53,53,54,54,57,57,59,59,61,61,63,63,64,64],"right_children":[2,4,6,8,10,12,14,16,18,20,-1,22,24,26,-1,28,30,-1,32,34,36,38,40,42,-1,44,-1,46,48,50,52,-1,-1,54,56,-1,-1,58,60,62,-1,-1,-1,64,-1,66,68,70,-1,72,-1,74,76,78,80,-1,-1,82,-1,84,-1,86,-1,88,90,-1,-1,-1,-1,-1,-1,-1,-1,-1,-1,-1,-1,-1,-1,-1,-1,-1,-1,-1,-1,-1,-1,-1,-1,-1,-1],"split_conditions":[1E0,1E0,1E0,1E0,1E0,2E0,2E0,1E0,1E0,1E0,4.093568E0,2E0,1E0,2E0,3.086563E0,1E0,1E0,3.9878447E0,1E0,2E0,1E0,1E0,2E0,3E0,3.5124174E-1,1E0,2.0585775E0,1E0,1E0,1E0,1E0,-1.2572914E0,-1.0360609E-1,1E0,3E0,4.1255465E0,9.557356E-1,1E0,1E0,1E0,-6.7469805E-1,6.640967E0,1.5569339E0,1E0,3.3367128E0,1E0,1E0,3E0,1.10414416E-1,2E0,-3.3426423E0,2E0,1E0,2E0,2E0,1.0824627E0,4.047926E0,1E0,4.114396E0,2E0,3.542981E-1,1E0,1.2622378E0,1E0,2E0,-1.5757546E0,1.9872483E0,-4.4002147E0,-8.48113E-1,1.6936898E0,3.132842E0,6.4738065E-1,-1.3666977E0,1.5561438E0,-1.069836E0,4.627093E0,1.221622E0,1.2333558E0,-9.9474835E-1,-2.017208E-1,3.8253605E-1,1.0872577E0,5.476378E0,-2.6263206E0,-2.521555E-1,6.224668E0,1.5400331E0,-1.2498118E0,4.4166037E-1,-2.8866313E0,2.283784E-2],"split_indices":[1097,571,357,1912,885,1444,220,1480,381,725,0,1825,885,775,0,1159,469,0,705,960,296,1808,818,378,0,162,0,362,1060,647,1549,0,0,319,378,0,0,95,162,705,0,0,0,916,0,624,1025,378,0,1152,0,689,749,1494,434,0,0,1518,0,105,0,720,0,1444,789,0,0,0,0,0,0,0,0,0,0,0,0,0,0,0,0,0,0,0,0,0,0,0,0,0,0],"split_type":[0,0,0,0,0,0,0,0,0,0,0,0,0,0,0,0,0,0,0,0,0,0,0,0,0,0,0,0,0,0,0,0,0,0,0,0,0,0,0,0,0,0,0,0,0,0,0,0,0,0,0,0,0,0,0,0,0,0,0,0,0,0,0,0,0,0,0,0,0,0,0,0,0,0,0,0,0,0,0,0,0,0,0,0,0,0,0,0,0,0,0],"sum_hessian":[7.85E2,5.08E2,2.77E2,4.31E2,7.7E1,2.22E2,5.5E1,4.17E2,1.4E1,6.7E1,1E1,2.07E2,1.5E1,5.2E1,3E0,3.65E2,5.2E1,1.2E1,2E0,6E1,7E0,1.94E2,1.3E1,1.4E1,1E0,4.9E1,3E0,3.54E2,1.1E1,4E1,1.2E1,1E0,1E0,5.4E1,6E0,6E0,1E0,1.81E2,1.3E1,1.2E1,1E0,1.3E1,1E0,4.8E1,1E0,3.17E2,3.7E1,1E1,1E0,3.8E1,2E0,7E0,5E0,4.7E1,7E0,1E0,5E0,1.66E2,1.5E1,1.1E1,2E0,1.1E1,1E0,2.8E1,2E1,3.07E2,1E1,3.2E1,5E0,6E0,4E0,3.2E1,6E0,6E0,1E0,4E0,1E0,4.6E1,1E0,6E0,1E0,1.6E2,6E0,9E0,2E0,1E1,1E0,2.2E1,6E0,1.8E1,2E0],"tree_param":{"num_deleted":"0","num_feature":"2048","num_nodes":"91","size_leaf_vector":"1"}},{"base_weights":[5.677262E-1,-8.822198E0,3.5691673E1,-1.1932072E1,3.124935E1,2.7161194E1,1.26368225E2,-1.4334144E1,3.752992E1,3.7041653E1,-2.3321548E0,4.597008E1,1.5193976E1,1.6570204E2,-8.354724E-1,-1.2324324E1,-6.447132E1,7.075993E1,-3.6993268E0,2.1460241E1,5.6624634E1,4.126156E1,6.263438E0,2.112425E1,-5.443945E0,1.1255628E1,5.7876277E-1,-1.0983905E1,-5.7702465E1,-7.213187E1,5.535909E0,4.937496E0,2.3809645E0,7.8543234E-1,-6.1058908E0,1.1040455E1,3.8013082E0,6.255646E1,3.8139182E-1,4.3841343E1,-1.1808839E0,1.8524399E1,4.7712965E0,5.6561017E0,-2.21058E1,-1.1701892E1,3.251289E0,-3.794939E1,-5.053778E0,-7.413027E1,-1.1279733E0,-1.7034519E-1,6.883966E-1,-8.070139E-1,-2.3920085E0,3.0514357E0,2.7594256E0,4.0625615E0,7.523636E-1,3.859074E1,4.317694E0,1.5530724E1,3.4645581E0,-1.2784764E1,2.1084846E1,-2.5447708E1,1.4440843E-1,-7.926389E-1,2.1929502E0,-2.5803053E0,-2.2632918E-1,-4.740181E0,-1.3312082E0,-2.9761615E-1,2.4674845E-1,-2.9022482E-3,1.1576943E0,2.9982567E0,1.6000134E0,8.28493E-1,2.5724926E0,-1.2018647E0,8.139927E-1,1.5426077E0,-1.3746303E-1,-1.7169701E0,-3.4100834E-1],"categories":[],"categories_nodes":[],"categories_segments":[],"categories_sizes":[],"default_left":[0,0,0,0,0,0,0,0,0,0,0,0,0,0,0,0,0,0,0,0,0,0,0,0,0,0,0,0,0,0,0,0,0,0,0,0,0,0,0,0,0,0,0,0,0,0,0,0,0,0,0,0,0,0,0,0,0,0,0,0,0,0,0,0,0,0,0,0,0,0,0,0,0,0,0,0,0,0,0,0,0,0,0,0,0,0,0],"id":10,"left_children":[1,3,5,7,9,11,13,15,17,19,-1,21,23,25,-1,27,29,31,33,35,37,39,-1,41,43,-1,-1,45,47,49,51,-1,-1,-1,53,55,-1,57,-1,59,-1,61,-1,63,65,67,-1,69,-1,71,-1,-1,-1,-1,73,75,-1,-1,-1,77,-1,79,-1,81,83,85,-1,-1,-1,-1,-1,-1,-1,-1,-1,-1,-1,-1,-1,-1,-1,-1,-1,-1,-1,-1,-1],"loss_changes":[2.5954647E5,7.776033E4,1.2497109E5,6.909206E4,1.9273762E4,3.3740305E4,7.918119E4,5.4727914E4,3.725308E4,1.1600305E4,0E0,1.0977375E4,1.1741908E4,2.3645656E4,0E0,3.1664656E4,1.1661477E4,1.0784141E3,5.8647974E2,9.609291E3,5.0108047E3,9.525375E3,0E0,9.232969E3,4.193875E3,0E0,0E0,2.4032137E4,3.8309258E3,7.1202344E2,1.6648502E2,0E0,0E0,0E0,2.7343704E2,5.4333774E3,0E0,1.2850391E3,0E0,4.521586E3,0E0,7.1146445E3,0E0,4.2528364E3,7.934048E2,2.451543E4,0E0,1.020459E3,0E0,1.3695312E2,0E0,0E0,0E0,0E0,1.5473766E2,8.654878E2,0E0,0E0,0E0,4.527758E3,0E0,3.386461E3,0E0,1.4231029E3,7.329463E2,1.8104883E2,0E0,0E0,0E0,0E0,0E0,0E0,0E0,0E0,0E0,0E0,0E0,0E0,0E0,0E0,0E0,0E0,0E0,0E0,0E0,0E0,0E0],"parents":[2147483647,0,0,1,1,2,2,3,3,4,4,5,5,6,6,7,7,8,8,9,9,11,11,12,12,13,13,15,15,16,16,17,17,18,18,19,19,20,20,21,21,23,23,24,24,27,27,28,28,29,29,30,30,34,34,35,35,37,37,39,39,41,41,43,43,44,44,45,45,47,47,49,49,54,54,55,55,59,59,61,61,63,63,64,64,65,65],"right_children":[2,4,6,8,10,12,14,16,18,20,-1,22,24,26,-1,28,30,32,34,36,38,40,-1,42,44,-1,-1,46,48,50,52,-1,-1,-1,54,56,-1,58,-1,60,-1,62,-1,64,66,68,-1,70,-1,72,-1,-1,-1,-1,74,76,-1,-1,-1,78,-1,80,-1,82,84,86,-1,-1,-1,-1,-1,-1,-1,-1,-1,-1,-1,-1,-1,-1,-1,-1,-1,-1,-1,-1,-1],"split_conditions":[2E0,1E0,1E0,2E0,1E0,1E0,1E0,2E0,1E0,1E0,-2.3321548E0,1E0,1E0,2E0,-8.354724E-1,2E0,2E0,1E0,3E0,2E0,2E0,1E0,6.263438E0,3E0,1E0,1.1255628E1,5.7876277E-1,1E0,3E0,1E0,1E0,4.937496E0,2.3809645E0,7.8543234E-1,1E0,1E0,3.8013082E0,1E0,3.8139182E-1,1E0,-1.1808839E0,1E0,4.7712965E0,3E0,1E0,1E0,3.251289E0,1E0,-5.053778E0,1E0,-1.1279733E0,-1.7034519E-1,6.883966E-1,-8.070139E-1,3E0,1E0,2.7594256E0,4.0625615E0,7.523636E-1,3E0,4.317694E0,1E0,3.4645581E0,1E0,1E0,1E0,1.4440843E-1,-7.926389E-1,2.1929502E0,-2.5803053E0,-2.2632918E-1,-4.740181E0,-1.3312082E0,-2.9761615E-1,2.4674845E-1,-2.9022482E-3,1.1576943E0,2.9982567E0,1.6000134E0,8.28493E-1,2.5724926E0,-1.2018647E0,8.139927E-1,1.5426077E0,-1.3746303E-1,-1.7169701E0,-3.4100834E-1],"split_indices":[1087,1622,126,1724,228,992,1,391,1722,95,0,62,520,1452,0,1174,809,1866,378,8,1155,1294,0,389,1939,0,0,1878,1155,344,58,0,0,0,504,119,0,1611,0,881,0,567,0,1087,389,410,0,490,0,494,0,0,0,0,58,1004,0,0,0,378,0,1611,0,119,705,8,0,0,0,0,0,0,0,0,0,0,0,0,0,0,0,0,0,0,0,0,0],"split_type":[0,0,0,0,0,0,0,0,0,0,0,0,0,0,0,0,0,0,0,0,0,0,0,0,0,0,0,0,0,0,0,0,0,0,0,0,0,0,0,0,0,0,0,0,0,0,0,0,0,0,0,0,0,0,0,0,0,0,0,0,0,0,0,0,0,0,0,0,0,0,0,0,0,0,0,0,0,0,0,0,0,0,0,0,0,0,0],"sum_hessian":[7.85E2,6.2E2,1.65E2,5.76E2,4.4E1,1.52E2,1.3E1,5.5E2,2.6E1,4.1E1,3E0,5.8E1,9.4E1,1E1,3E0,5.3E2,2E1,1.4E1,1.2E1,2.4E1,1.7E1,5.5E1,3E0,7.3E1,2.1E1,9E0,1E0,5.16E2,1.4E1,1.8E1,2E0,1E1,4E0,1E0,1.1E1,2E1,4E0,1.5E1,2E0,5.3E1,2E0,7.1E1,2E0,1.3E1,8E0,5.11E2,5E0,9E0,5E0,1.7E1,1E0,1E0,1E0,3E0,8E0,1.7E1,3E0,1.4E1,1E0,4.6E1,7E0,6.7E1,4E0,6E0,7E0,7E0,1E0,5.01E2,1E1,8E0,1E0,1.6E1,1E0,6E0,2E0,1.5E1,2E0,2.5E1,2.1E1,6.3E1,4E0,5E0,1E0,6E0,1E0,6E0,1E0],"tree_param":{"num_deleted":"0","num_feature":"2048","num_nodes":"87","size_leaf_vector":"1"}},{"base_weights":[5.3100723E-1,-1.6191854E1,2.190565E1,-3.7212994E0,-3.2954247E1,1.7830368E1,7.566959E1,-6.0313916E0,9.276774E1,-4.0411697E1,-1.2672998E1,1.4778539E1,6.0869526E1,7.989752E1,1.2128971E0,-1.0013753E1,3.3535023E1,1.7830933E1,7.8469114E0,-4.2687702E1,1.6395761E1,-1.8607866E1,2.813799E1,1.0767129E1,5.3648506E1,6.480924E1,9.749878E-1,5.1494403E0,7.6093113E-1,-2.872131E1,5.2099338E0,4.7855306E0,3.02233E-1,1.5487319E0,1.19890094E-1,-4.487242E1,1.0670115E1,1.258556E0,-7.775312E-2,-2.4093847E1,3.1195948E1,1.9151415E0,3.9861253E-1,1.9060242E1,-3.9364197E0,2.743164E1,1.1576171E2,6.782712E1,3.2714036E-1,-3.1202528E1,3.9869156E1,1.7091011E1,-1.0438201E1,-1.2124756E1,2.5095764E1,-4.653858E1,1.7996597E1,1.7063635E1,-6.643409E-1,-2.962233E1,2.2741394E1,5.717812E-1,2.1468782E0,2.3807884E1,2.8470817E0,3.2615752E0,-3.1169905E1,9.0386305E0,3.505542E0,3.6707325E0,9.855588E0,4.48499E0,1.469151E0,-2.033525E0,3.284752E0,2.9205909E0,5.9373116E-1,1.4270624E0,-2.4879835E0,-1.139322E0,1.9333081E-1,-9.40843E-1,4.5167026E-1,1.846479E0,2.211525E-1,-2.084108E0,-3.3598413E0,-5.580148E-1,3.0825222E0,1.4017127E0,3.725298E-1,-2.1205528E0,9.984371E-1,2.340729E0,-1.1345513E0,1.5988755E0,-1.2420388E0,-1.4050387E-1,2.4962149E0,4.1976583E-1,-3.1247733E0,-2.1862335E0,1.4441377E0,2.3030262E-1,1.7102817E0],"categories":[],"categories_nodes":[],"categories_segments":[],"categories_sizes":[],"default_left":[0,0,0,0,0,0,0,0,0,0,0,0,0,0,0,0,0,0,0,0,0,0,0,0,0,0,0,0,0,0,0,0,0,0,0,0,0,0,0,0,0,0,0,0,0,0,0,0,0,0,0,0,0,0,0,0,0,0,0,0,0,0,0,0,0,0,0,0,0,0,0,0,0,0,0,0,0,0,0,0,0,0,0,0,0,0,0,0,0,0,0,0,0,0,0,0,0,0,0,0,0,0,0,0,0],"id":11,"left_children":[1,3,5,7,9,11,13,15,17,19,21,23,25,27,-1,29,31,33,-1,35,37,39,41,43,45,47,-1,-1,-1,49,51,-1,53,-1,-1,55,57,-1,-1,59,61,-1,-1,63,65,67,69,71,-1,73,75,77,79,81,83,85,87,89,-1,91,93,-1,-1,95,97,99,101,103,-1,-1,-1,-1,-1,-1,-1,-1,-1,-1,-1,-1,-1,-1,-1,-1,-1,-1,-1,-1,-1,-1,-1,-1,-1,-1,-1,-1,-1,-1,-1,-1,-1,-1,-1,-1,-1],"loss_changes":[2.809492E5,9.20624E4,7.424136E4,5.7175758E4,2.7922172E4,4.139454E4,4.1521406E3,3.957019E4,1.2599539E4,1.8413203E4,1.31183955E4,4.651122E4,2.7301562E3,2.9297969E3,0E0,6.479878E4,3.297582E4,2.8608868E2,0E0,1.5866266E4,4.250183E2,1.3319878E4,1.9357568E2,3.3608027E4,4.242004E4,3.0598047E3,0E0,0E0,0E0,1.860318E4,2.36039E4,0E0,4.617805E3,0E0,0E0,1.414075E4,9.995215E2,0E0,0E0,1.1548621E4,3.8911133E1,0E0,0E0,1.3479691E4,1.9704312E4,1.0600299E4,9.928641E3,1.5452344E3,0E0,1.32795E4,3.9766797E2,2.463531E4,5.881904E3,6.8160925E2,3.801399E2,1.01150625E4,3.8271658E3,1.6557715E2,0E0,8.117367E3,3.706477E3,0E0,0E0,1.1334195E4,7.8600947E3,1.5133223E4,5.229385E3,1.2743818E3,0E0,0E0,0E0,0E0,0E0,0E0,0E0,0E0,0E0,0E0,0E0,0E0,0E0,0E0,0E0,0E0,0E0,0E0,0E0,0E0,0E0,0E0,0E0,0E0,0E0,0E0,0E0,0E0,0E0,0E0,0E0,0E0,0E0,0E0,0E0,0E0,0E0],"parents":[2147483647,0,0,1,1,2,2,3,3,4,4,5,5,6,6,7,7,8,8,9,9,10,10,11,11,12,12,13,13,15,15,16,16,17,17,19,19,20,20,21,21,22,22,23,23,24,24,25,25,29,29,30,30,32,32,35,35,36,36,39,39,40,40,43,43,44,44,45,45,46,46,47,47,49,49,50,50,51,51,52,52,53,53,54,54,55,55,56,56,57,57,59,59,60,60,63,63,64,64,65,65,66,66,67,67],"right_children":[2,4,6,8,10,12,14,16,18,20,22,24,26,28,-1,30,32,34,-1,36,38,40,42,44,46,48,-1,-1,-1,50,52,-1,54,-1,-1,56,58,-1,-1,60,62,-1,-1,64,66,68,70,72,-1,74,76,78,80,82,84,86,88,90,-1,92,94,-1,-1,96,98,100,102,104,-1,-1,-1,-1,-1,-1,-1,-1,-1,-1,-1,-1,-1,-1,-1,-1,-1,-1,-1,-1,-1,-1,-1,-1,-1,-1,-1,-1,-1,-1,-1,-1,-1,-1,-1,-1,-1],"split_conditions":[1E0,1E0,2E0,3E0,1E0,1E0,3E0,1E0,1E0,1E0,1E0,1E0,1E0,1E0,1.2128971E0,1E0,2E0,1E0,7.8469114E0,1E0,1E0,1E0,1E0,1E0,1E0,1E0,9.749878E-1,5.1494403E0,7.6093113E-1,1E0,1E0,4.7855306E0,1E0,1.5487319E0,1.19890094E-1,1E0,1E0,1.258556E0,-7.775312E-2,1E0,2E0,1.9151415E0,3.9861253E-1,2E0,1E0,2E0,1E0,2E0,3.2714036E-1,1E0,1E0,1E0,2E0,3E0,1E0,1E0,1E0,1E0,-6.643409E-1,1E0,1E0,5.717812E-1,2.1468782E0,1E0,1E0,1E0,3E0,1E0,3.505542E0,3.6707325E0,9.855588E0,4.48499E0,1.469151E0,-2.033525E0,3.284752E0,2.9205909E0,5.9373116E-1,1.4270624E0,-2.4879835E0,-1.139322E0,1.9333081E-1,-9.40843E-1,4.5167026E-1,1.846479E0,2.211525E-1,-2.084108E0,-3.3598413E0,-5.580148E-1,3.0825222E0,1.4017127E0,3.725298E-1,-2.1205528E0,9.984371E-1,2.340729E0,-1.1345513E0,1.5988755E0,-1.2420388E0,-1.4050387E-1,2.4962149E0,4.1976583E-1,-3.1247733E0,-2.1862335E0,1.4441377E0,2.3030262E-1,1.7102817E0],"split_indices":[1357,1928,1444,1142,694,129,1444,461,875,1393,203,1912,1391,1731,0,875,461,1851,0,305,456,1972,204,1851,875,58,0,0,0,952,935,0,129,0,0,1071,501,0,0,1177,875,0,0,935,694,1545,58,352,0,1391,373,1011,1851,461,1851,1851,1391,180,0,787,803,0,0,1683,352,192,875,1273,0,0,0,0,0,0,0,0,0,0,0,0,0,0,0,0,0,0,0,0,0,0,0,0,0,0,0,0,0,0,0,0,0,0,0,0,0],"split_type":[0,0,0,0,0,0,0,0,0,0,0,0,0,0,0,0,0,0,0,0,0,0,0,0,0,0,0,0,0,0,0,0,0,0,0,0,0,0,0,0,0,0,0,0,0,0,0,0,0,0,0,0,0,0,0,0,0,0,0,0,0,0,0,0,0,0,0,0,0,0,0,0,0,0,0,0,0,0,0,0,0,0,0,0,0,0,0,0,0,0,0,0,0,0,0,0,0,0,0,0,0,0,0,0,0],"sum_hessian":[7.84E2,4.4E2,3.44E2,2.53E2,1.87E2,3.21E2,2.3E1,2.48E2,5E0,1.36E2,5.1E1,3.01E2,2E1,2.1E1,2E0,2.26E2,2.2E1,2E0,3E0,1.31E2,5E0,4.5E1,6E0,2.74E2,2.7E1,1.8E1,2E0,2E1,1E0,1.01E2,1.25E2,9E0,1.3E1,1E0,1E0,1.26E2,5E0,4E0,1E0,4.1E1,4E0,5E0,1E0,1.75E2,9.9E1,2E1,7E0,1.7E1,1E0,9.8E1,3E0,7.1E1,5.4E1,9E0,4E0,1.23E2,3E0,4E0,1E0,3.7E1,4E0,1E0,3E0,1.35E2,4E1,7.9E1,2E1,1.3E1,7E0,4E0,3E0,1.5E1,2E0,9.7E1,1E0,2E0,1E0,6.5E1,6E0,3.4E1,2E1,8E0,1E0,3E0,1E0,4.6E1,7.7E1,2E0,1E0,2E0,2E0,3.4E1,3E0,3E0,1E0,1.3E2,5E0,3.6E1,4E0,7.5E1,4E0,1.9E1,1E0,1.1E1,2E0],"tree_param":{"num_deleted":"0","num_feature":"2048","num_nodes":"105","size_leaf_vector":"1"}},{"base_weights":[7.332038E-1,-1.4836777E1,2.0633575E1,-1.5923713E1,9.305849E0,1.9435152E1,9.4064E0,-9.759144E0,-3.56869E1,2.0852848E1,-3.5494106E1,-8.28296E0,-4.3201194E0,-3.8955105E1,3.4785016E0,7.1655083E0,2.6320711E1,-2.9375188E0,-5.7603925E-1,-1.0792586E1,2.1378944E1,-6.785089E1,-2.8557137E1,1.124651E1,-2.0069153E1,2.9661205E1,-4.840431E0,-1.3862645E1,1.6690918E1,7.240046E1,-9.891296E0,-6.959894E1,-7.5331175E-1,-3.171609E1,3.6233032E1,8.430409E0,2.927194E0,-2.3471107E1,-9.0559894E-1,3.1227022E1,-3.0346945E1,6.66882E0,-3.374416E1,-6.716276E-1,-2.3577635E0,1.4731506E0,4.8243448E-1,3.9288372E-1,4.931395E0,-8.8216347E-1,4.6495563E-1,-4.45639E0,-7.990033E-1,-2.2932534E0,8.640208E-1,3.7467248E0,-1.0991616E0,4.2754048E-1,4.149999E0,-1.7547166E0,-1.0490327E-1,-7.356646E-2,-1.1179664E-2,2.168128E0,2.2482046E-1,1.8992229E-1,-2.9823143E0,9.8135877E-1,-1.8078871E0,-2.2478733E0,-6.245438E-1],"categories":[],"categories_nodes":[],"categories_segments":[],"categories_sizes":[],"default_left":[0,0,0,0,0,0,0,0,0,0,0,0,0,0,0,0,0,0,0,0,0,0,0,0,0,0,0,0,0,0,0,0,0,0,0,0,0,0,0,0,0,0,0,0,0,0,0,0,0,0,0,0,0,0,0,0,0,0,0,0,0,0,0,0,0,0,0,0,0,0,0],"id":12,"left_children":[1,3,5,7,-1,9,-1,11,13,15,17,19,-1,21,-1,23,25,-1,-1,27,29,31,33,35,37,39,41,43,45,47,49,51,-1,53,55,57,-1,59,61,63,65,67,69,-1,-1,-1,-1,-1,-1,-1,-1,-1,-1,-1,-1,-1,-1,-1,-1,-1,-1,-1,-1,-1,-1,-1,-1,-1,-1,-1,-1],"loss_changes":[2.4353712E5,8.098707E4,5.087764E4,5.3135758E4,0E0,2.7450594E4,0E0,2.893245E4,3.3253203E4,2.4882969E4,2.3048525E3,2.4721596E4,0E0,2.8408562E4,0E0,1.1006742E4,2.5021938E4,0E0,0E0,2.5881672E4,4.2197965E4,1.6945781E3,1.670402E4,8.143576E3,8.262612E2,2.1243422E4,8.20888E3,1.990032E4,1.7396885E3,3.8947734E3,1.3581793E3,1.6871875E3,0E0,1.7282016E4,6.1897974E3,6.8743945E3,0E0,1.0685146E3,3.8491797E-1,2.0426E4,3.6429243E3,6.2701426E3,1.9257812E1,0E0,0E0,0E0,0E0,0E0,0E0,0E0,0E0,0E0,0E0,0E0,0E0,0E0,0E0,0E0,0E0,0E0,0E0,0E0,0E0,0E0,0E0,0E0,0E0,0E0,0E0,0E0,0E0],"parents":[2147483647,0,0,1,1,2,2,3,3,5,5,7,7,8,8,9,9,10,10,11,11,13,13,15,15,16,16,19,19,20,20,21,21,22,22,23,23,24,24,25,25,26,26,27,27,28,28,29,29,30,30,31,31,33,33,34,34,35,35,37,37,38,38,39,39,40,40,41,41,42,42],"right_children":[2,4,6,8,-1,10,-1,12,14,16,18,20,-1,22,-1,24,26,-1,-1,28,30,32,34,36,38,40,42,44,46,48,50,52,-1,54,56,58,-1,60,62,64,66,68,70,-1,-1,-1,-1,-1,-1,-1,-1,-1,-1,-1,-1,-1,-1,-1,-1,-1,-1,-1,-1,-1,-1,-1,-1,-1,-1,-1,-1],"split_conditions":[1E0,1E0,1E0,1E0,9.305849E0,2E0,9.4064E0,1E0,1E0,2E0,1E0,1E0,-4.3201194E0,1E0,3.4785016E0,1E0,1E0,-2.9375188E0,-5.7603925E-1,1E0,2E0,1E0,1E0,1E0,2E0,1E0,2E0,2E0,1E0,1E0,2E0,1E0,-7.5331175E-1,2E0,1E0,2E0,2.927194E0,1E0,1E0,2E0,1E0,2E0,1E0,-6.716276E-1,-2.3577635E0,1.4731506E0,4.8243448E-1,3.9288372E-1,4.931395E0,-8.8216347E-1,4.6495563E-1,-4.45639E0,-7.990033E-1,-2.2932534E0,8.640208E-1,3.7467248E0,-1.0991616E0,4.2754048E-1,4.149999E0,-1.7547166E0,-1.0490327E-1,-7.356646E-2,-1.1179664E-2,2.168128E0,2.2482046E-1,1.8992229E-1,-2.9823143E0,9.8135877E-1,-1.8078871E0,-2.2478733E0,-6.245438E-1],"split_indices":[1357,1612,1612,699,0,1375,0,19,1584,1357,1361,557,0,1670,0,1451,1277,0,0,1951,557,940,1445,1413,1973,665,58,58,647,1057,1057,1603,0,617,372,409,0,927,724,1440,617,1175,557,0,0,0,0,0,0,0,0,0,0,0,0,0,0,0,0,0,0,0,0,0,0,0,0,0,0,0,0],"split_type":[0,0,0,0,0,0,0,0,0,0,0,0,0,0,0,0,0,0,0,0,0,0,0,0,0,0,0,0,0,0,0,0,0,0,0,0,0,0,0,0,0,0,0,0,0,0,0,0,0,0,0,0,0,0,0,0,0,0,0,0,0,0,0,0,0,0,0,0,0,0,0],"sum_hessian":[7.84E2,4.4E2,3.44E2,4.38E2,2E0,3.42E2,2E0,3.35E2,1.03E2,3.34E2,8E0,3.28E2,7E0,1E2,3E0,9.6E1,2.38E2,5E0,3E0,3.03E2,2.5E1,2.5E1,7.5E1,8.4E1,1.2E1,2.15E2,2.3E1,2.73E2,3E1,9E0,1.6E1,2.4E1,1E0,7.2E1,3E0,7.9E1,5E0,1E1,2E0,2.1E2,5E0,1.7E1,6E0,2.43E2,3E1,1.6E1,1.4E1,1E0,8E0,1.3E1,3E0,2.3E1,1E0,6.5E1,7E0,2E0,1E0,7.8E1,1E0,8E0,2E0,1E0,1E0,1.86E2,2.4E1,2E0,3E0,1.4E1,3E0,5E0,1E0],"tree_param":{"num_deleted":"0","num_feature":"2048","num_nodes":"71","size_leaf_vector":"1"}},{"base_weights":[5.9798545E-1,-9.474397E0,1.7952478E1,-1.4083411E1,4.2242744E1,1.4465867E1,6.412411E1,-1.5843431E1,5.265097E1,2.9618896E1,9.458374E0,1.094566E1,5.5684246E1,2.8584187E1,1.1386097E2,-1.8471151E1,1.7682245E1,8.6868775E-1,3.4253933E0,2.0281992E1,6.4827423E0,1.3662937E1,-2.9648457E1,5.9409004E1,8.442614E-1,1.43546915E1,4.4438696E0,1.21315895E2,1.9238999E0,-2.1128298E1,2.3825464E1,5.6821087E1,2.884973E0,1.0361426E1,7.773309E1,1.9121464E1,2.4307573E0,-3.5158436E1,1.6532881E0,6.2168793E1,3.035987E-1,-9.9355316E-1,4.146251E1,8.122216E0,2.123133E0,-2.8683868E1,-9.68443E0,3.15633E0,5.451353E1,6.494986E1,-2.560699E-1,-9.920506E0,3.1336678E1,-1.9662781E0,3.004415E1,6.2948346E0,-4.658733E-1,7.2392535E-1,2.3078442E1,-4.1510887E0,1.9373232E1,-4.101427E1,-5.4908586E-1,4.1162252E0,1.3178701E0,1.046394E0,-9.71108E0,1.0790458E0,3.5548573E0,-2.014331E0,1.212194E0,-2.710676E-1,-2.3521743E0,8.642285E-1,-1.4440258E0,1.6630056E0,3.9081745E0,4.5221214E0,3.8062835E-1,-9.7099155E-1,4.907058E-1,2.1670783E0,2.3520514E-1,-3.674816E-1,2.264377E0,1.6373423E-1,3.0728414E0,-1.02541E-1,2.0904431E0,1.1315483E0,2.5737653E0,-1.4242502E0,1.1768262E-1,6.1073965E-1,2.4025872E0,-2.6813512E0,-6.0506123E-1,-6.7084616E-1,-1.4041407E-1],"categories":[],"categories_nodes":[],"categories_segments":[],"categories_sizes":[],"default_left":[0,0,0,0,0,0,0,0,0,0,0,0,0,0,0,0,0,0,0,0,0,0,0,0,0,0,0,0,0,0,0,0,0,0,0,0,0,0,0,0,0,0,0,0,0,0,0,0,0,0,0,0,0,0,0,0,0,0,0,0,0,0,0,0,0,0,0,0,0,0,0,0,0,0,0,0,0,0,0,0,0,0,0,0,0,0,0,0,0,0,0,0,0,0,0,0,0,0,0],"id":13,"left_children":[1,3,5,7,9,11,13,15,17,19,-1,21,23,25,27,29,31,-1,-1,33,-1,35,37,39,-1,41,-1,43,-1,45,47,49,51,53,55,57,59,61,-1,63,-1,65,67,-1,-1,69,71,73,75,77,-1,79,81,83,85,-1,-1,87,89,91,93,95,-1,-1,-1,-1,97,-1,-1,-1,-1,-1,-1,-1,-1,-1,-1,-1,-1,-1,-1,-1,-1,-1,-1,-1,-1,-1,-1,-1,-1,-1,-1,-1,-1,-1,-1,-1,-1],"loss_changes":[1.3756375E5,1.19300695E5,4.5596336E4,5.4628047E4,5.2114844E4,3.8566742E4,3.2098266E4,3.970557E4,2.833203E2,2.4251863E4,0E0,2.7981453E4,2.493129E3,6.8664443E3,1.2102578E3,4.714453E4,1.8947959E4,0E0,0E0,1.914273E4,0E0,1.4361641E4,5.881801E3,2.557461E3,0E0,4.6178267E3,0E0,9.92125E2,0E0,3.3530016E4,1.568533E4,4.7238477E3,9.419317E3,7.581002E3,1.0622691E4,1.1485477E4,8.778415E3,1.954166E3,0E0,1.4213203E3,0E0,1.4019021E3,5.145547E2,0E0,0E0,4.1376188E4,2.332416E4,4.8221494E3,5.9512305E2,3.1053398E3,0E0,1.9291958E3,6.1873975E2,3.2166755E3,6.1916836E3,0E0,0E0,2.3059878E3,1.0926625E4,6.470878E3,3.658046E3,3.216621E2,0E0,0E0,0E0,0E0,2.2437561E1,0E0,0E0,0E0,0E0,0E0,0E0,0E0,0E0,0E0,0E0,0E0,0E0,0E0,0E0,0E0,0E0,0E0,0E0,0E0,0E0,0E0,0E0,0E0,0E0,0E0,0E0,0E0,0E0,0E0,0E0,0E0,0E0],"parents":[2147483647,0,0,1,1,2,2,3,3,4,4,5,5,6,6,7,7,8,8,9,9,11,11,12,12,13,13,14,14,15,15,16,16,19,19,21,21,22,22,23,23,25,25,27,27,29,29,30,30,31,31,32,32,33,33,34,34,35,35,36,36,37,37,39,39,41,41,42,42,45,45,46,46,47,47,48,48,49,49,51,51,52,52,53,53,54,54,57,57,58,58,59,59,60,60,61,61,66,66],"right_children":[2,4,6,8,10,12,14,16,18,20,-1,22,24,26,28,30,32,-1,-1,34,-1,36,38,40,-1,42,-1,44,-1,46,48,50,52,54,56,58,60,62,-1,64,-1,66,68,-1,-1,70,72,74,76,78,-1,80,82,84,86,-1,-1,88,90,92,94,96,-1,-1,-1,-1,98,-1,-1,-1,-1,-1,-1,-1,-1,-1,-1,-1,-1,-1,-1,-1,-1,-1,-1,-1,-1,-1,-1,-1,-1,-1,-1,-1,-1,-1,-1,-1,-1],"split_conditions":[1E0,2E0,2E0,1E0,1E0,1E0,1E0,1E0,1E0,1E0,9.458374E0,2E0,1E0,3E0,1E0,1E0,2E0,8.6868775E-1,3.4253933E0,1E0,6.4827423E0,1E0,1E0,1E0,8.442614E-1,2E0,4.4438696E0,2E0,1.9238999E0,2E0,1E0,1E0,1E0,2E0,1E0,2E0,1E0,2E0,1.6532881E0,1E0,3.035987E-1,1E0,1E0,8.122216E0,2.123133E0,1E0,1E0,1E0,1E0,1E0,-2.560699E-1,1E0,3E0,1E0,3E0,6.2948346E0,-4.658733E-1,3E0,1E0,3E0,2E0,1E0,-5.4908586E-1,4.1162252E0,1.3178701E0,1.046394E0,1E0,1.0790458E0,3.5548573E0,-2.014331E0,1.212194E0,-2.710676E-1,-2.3521743E0,8.642285E-1,-1.4440258E0,1.6630056E0,3.9081745E0,4.5221214E0,3.8062835E-1,-9.7099155E-1,4.907058E-1,2.1670783E0,2.3520514E-1,-3.674816E-1,2.264377E0,1.6373423E-1,3.0728414E0,-1.02541E-1,2.0904431E0,1.1315483E0,2.5737653E0,-1.4242502E0,1.1768262E-1,6.1073965E-1,2.4025872E0,-2.6813512E0,-6.0506123E-1,-6.7084616E-1,-1.4041407E-1],"split_indices":[1573,322,1984,1984,1096,1656,1096,461,1912,1730,0,136,1391,1730,362,497,461,0,0,1724,0,1851,80,58,0,307,0,1452,0,1053,1053,271,1656,1452,1,1573,289,1952,0,222,0,1452,80,0,0,1184,80,99,469,1053,0,294,1452,43,378,0,0,389,1053,1452,1851,289,0,0,0,0,705,0,0,0,0,0,0,0,0,0,0,0,0,0,0,0,0,0,0,0,0,0,0,0,0,0,0,0,0,0,0,0,0],"split_type":[0,0,0,0,0,0,0,0,0,0,0,0,0,0,0,0,0,0,0,0,0,0,0,0,0,0,0,0,0,0,0,0,0,0,0,0,0,0,0,0,0,0,0,0,0,0,0,0,0,0,0,0,0,0,0,0,0,0,0,0,0,0,0,0,0,0,0,0,0,0,0,0,0,0,0,0,0,0,0,0,0,0,0,0,0,0,0,0,0,0,0,0,0,0,0,0,0,0,0],"sum_hessian":[7.85E2,4.97E2,2.88E2,4.57E2,4E1,2.69E2,1.9E1,4.46E2,1.1E1,3.7E1,3E0,2.49E2,2E1,1.2E1,7E0,4.14E2,3.2E1,1E0,1E1,3.4E1,3E0,2.34E2,1.5E1,1.8E1,2E0,1E1,2E0,6E0,1E0,3.9E2,2.4E1,8E0,2.4E1,3E1,4E0,1.57E2,7.7E1,1.4E1,1E0,1.7E1,1E0,7E0,3E0,5E0,1E0,2.34E2,1.56E2,1.5E1,9E0,7E0,1E0,1.7E1,7E0,1.9E1,1.1E1,3E0,1E0,2.8E1,1.29E2,5.6E1,2.1E1,1.1E1,3E0,1.5E1,2E0,2E0,5E0,2E0,1E0,2.18E2,1.6E1,1.32E2,2.4E1,1.1E1,4E0,3E0,6E0,6E0,1E0,1.3E1,4E0,6E0,1E0,1.8E1,1E0,5E0,6E0,2.7E1,1E0,1.03E2,2.6E1,1.3E1,4.3E1,1.5E1,6E0,1E1,1E0,4E0,1E0],"tree_param":{"num_deleted":"0","num_feature":"2048","num_nodes":"99","size_leaf_vector":"1"}},{"base_weights":[7.2709054E-1,-3.2973492E-1,1.0321672E1,-9.590677E0,1.5611852E1,-1.3111047E1,3.1816471E1,3.367891E1,5.468507E0,-1.4511449E1,3.6218452E0,2.2738733E1,6.5856733E0,2.5981155E1,7.391163E1,1.0842581E1,-2.0565115E1,-1.1780268E1,-4.9648674E1,1.2938889E1,6.10784E0,1.7207615E1,4.0797115E1,4.8263702E0,6.910963E-1,7.9724264E0,3.5099384E1,-2.0223694E0,-3.0181679E1,-1.3020002E1,4.586772E1,-5.1385887E1,1.3116495E-1,2.02551E1,-2.3359915E1,2.0109106E1,-1.6385529E0,4.3392536E1,-1.2371578E0,6.6012325E0,4.3400185E1,2.7749989E1,4.5336585E0,5.75603E0,-1.7016774E0,-3.460867E1,4.93884E-1,-1.0623816E0,4.5755258E-1,3.0088353E0,8.415896E-1,-3.4511194E0,-1.6084527E0,1.5261555E0,-6.9291645E-1,-1.7410431E0,-1.9442564E-2,1.0569074E0,2.659474E0,2.9210176E0,-2.6291883E-1,6.3378966E-1,-4.9948373E-1,2.9717565E0,8.2548267E-1,2.6477122E0,5.983491E-1,4.306312E-2,1.6017174E0,-2.4111054E0,-6.1141646E-1],"categories":[],"categories_nodes":[],"categories_segments":[],"categories_sizes":[],"default_left":[0,0,0,0,0,0,0,0,0,0,0,0,0,0,0,0,0,0,0,0,0,0,0,0,0,0,0,0,0,0,0,0,0,0,0,0,0,0,0,0,0,0,0,0,0,0,0,0,0,0,0,0,0,0,0,0,0,0,0,0,0,0,0,0,0,0,0,0,0,0,0],"id":14,"left_children":[1,3,-1,5,7,9,11,13,15,17,-1,19,-1,21,23,25,27,29,31,33,-1,35,37,-1,-1,39,41,43,45,47,49,51,-1,53,55,57,-1,59,-1,61,63,65,-1,67,-1,69,-1,-1,-1,-1,-1,-1,-1,-1,-1,-1,-1,-1,-1,-1,-1,-1,-1,-1,-1,-1,-1,-1,-1,-1,-1],"loss_changes":[1.3653298E5,1.1530434E5,0E0,7.242676E4,5.241157E4,4.6287727E4,2.3707906E4,2.9978945E4,2.6105703E4,4.240796E4,0E0,2.52507E4,0E0,1.0736965E4,2.6118906E3,1.044177E4,5.645123E3,3.0399453E4,2.9849219E3,9.236957E3,0E0,7.7177773E3,5.8958164E3,0E0,0E0,6.4658936E3,2.4013633E3,2.5142197E3,3.8158418E3,3.349875E4,3.7396484E1,1.6948906E3,0E0,3.966621E3,6.2015063E2,3.1301855E3,0E0,5.2572227E3,0E0,7.097356E3,8.4140625E0,3.594377E3,0E0,9.9127576E2,0E0,1.5250566E3,0E0,0E0,0E0,0E0,0E0,0E0,0E0,0E0,0E0,0E0,0E0,0E0,0E0,0E0,0E0,0E0,0E0,0E0,0E0,0E0,0E0,0E0,0E0,0E0,0E0],"parents":[2147483647,0,0,1,1,3,3,4,4,5,5,6,6,7,7,8,8,9,9,11,11,13,13,14,14,15,15,16,16,17,17,18,18,19,19,21,21,22,22,25,25,26,26,27,27,28,28,29,29,30,30,31,31,33,33,34,34,35,35,37,37,39,39,40,40,41,41,43,43,45,45],"right_children":[2,4,-1,6,8,10,12,14,16,18,-1,20,-1,22,24,26,28,30,32,34,-1,36,38,-1,-1,40,42,44,46,48,50,52,-1,54,56,58,-1,60,-1,62,64,66,-1,68,-1,70,-1,-1,-1,-1,-1,-1,-1,-1,-1,-1,-1,-1,-1,-1,-1,-1,-1,-1,-1,-1,-1,-1,-1,-1,-1],"split_conditions":[1E0,1E0,1.0321672E1,2E0,2E0,1E0,1E0,2E0,2E0,1E0,3.6218452E0,1E0,6.5856733E0,1E0,1E0,1E0,1E0,2E0,1E0,1E0,6.10784E0,1E0,1E0,4.8263702E0,6.910963E-1,1E0,1E0,1E0,1E0,1E0,2E0,1E0,1.3116495E-1,1E0,1E0,1E0,-1.6385529E0,1E0,-1.2371578E0,1E0,1E0,2E0,4.5336585E0,1E0,-1.7016774E0,1E0,4.93884E-1,-1.0623816E0,4.5755258E-1,3.0088353E0,8.415896E-1,-3.4511194E0,-1.6084527E0,1.5261555E0,-6.9291645E-1,-1.7410431E0,-1.9442564E-2,1.0569074E0,2.659474E0,2.9210176E0,-2.6291883E-1,6.3378966E-1,-4.9948373E-1,2.9717565E0,8.2548267E-1,2.6477122E0,5.983491E-1,4.306312E-2,1.6017174E0,-2.4111054E0,-6.1141646E-1],"split_indices":[1344,1573,0,322,992,978,294,294,1285,1755,0,829,0,1622,1385,725,1985,725,1125,1285,0,1530,228,0,0,1385,322,322,829,1480,199,1064,0,1423,1480,352,0,1385,0,829,24,725,0,294,0,352,0,0,0,0,0,0,0,0,0,0,0,0,0,0,0,0,0,0,0,0,0,0,0,0,0],"split_type":[0,0,0,0,0,0,0,0,0,0,0,0,0,0,0,0,0,0,0,0,0,0,0,0,0,0,0,0,0,0,0,0,0,0,0,0,0,0,0,0,0,0,0,0,0,0,0,0,0,0,0,0,0,0,0,0,0,0,0,0,0,0,0,0,0,0,0,0,0,0,0],"sum_hessian":[7.83E2,7.79E2,4E0,4.93E2,2.86E2,4.55E2,3.8E1,1.02E2,1.84E2,4.47E2,8E0,3.5E1,3E0,8.7E1,1.5E1,1.53E2,3.1E1,4.16E2,3.1E1,3.2E1,3E0,5.6E1,3.1E1,1.4E1,1E0,1.38E2,1.5E1,1.1E1,2E1,4.08E2,8E0,3E1,1E0,2.7E1,5E0,5.3E1,3E0,3E1,1E0,1.34E2,4E0,1.4E1,1E0,9E0,2E0,1.8E1,2E0,3.41E2,6.7E1,7E0,1E0,2.5E1,5E0,2.4E1,3E0,4E0,1E0,4.8E1,5E0,2.8E1,2E0,1.08E2,2.6E1,3E0,1E0,7E0,7E0,8E0,1E0,1.5E1,3E0],"tree_param":{"num_deleted":"0","num_feature":"2048","num_nodes":"71","size_leaf_vector":"1"}},{"base_weights":[8.150106E-1,-1.9101195E-1,9.806525E0,-1.7865065E0,7.133592E1,-5.303088E0,2.18175E1,7.835824E1,7.7644724E-1,1.9720228E0,-1.6543861E1,1.886006E1,3.0754406E0,5.064074E0,1.2153772E0,-3.8362322E0,1.876349E1,-9.8940724E-1,-2.7174717E1,2.7006346E1,8.266871E0,-1.7794819E0,-3.9621675E0,2.4706598E1,-1.1003941E1,-7.096073E0,3.1757418E1,-3.1040907E1,-4.7783914E0,3.349839E1,9.192212E0,6.460753E0,2.51143E0,-2.682856E-1,1.9312838E0,1.6810764E0,-6.249125E-1,2.2665856E-2,-2.5348663E0,-8.706292E-1,1.1199745E0,2.2695704E0,-1.3159943E0,-3.0384665E0,-1.5232377E0,-8.323265E-1,3.7188594E0,2.2459362E0,-4.276831E-1,9.1409147E-1,2.4482763E-1,5.233775E-1,-3.659309E-1],"categories":[],"categories_nodes":[],"categories_segments":[],"categories_sizes":[],"default_left":[0,0,0,0,0,0,0,0,0,0,0,0,0,0,0,0,0,0,0,0,0,0,0,0,0,0,0,0,0,0,0,0,0,0,0,0,0,0,0,0,0,0,0,0,0,0,0,0,0,0,0,0,0],"id":15,"left_children":[1,3,-1,5,7,9,11,13,-1,15,17,19,-1,-1,-1,21,23,25,27,29,31,33,-1,35,37,39,41,43,45,47,49,51,-1,-1,-1,-1,-1,-1,-1,-1,-1,-1,-1,-1,-1,-1,-1,-1,-1,-1,-1,-1,-1],"loss_changes":[1.2305105E5,8.891345E4,0E0,6.3365824E4,6.0550625E3,5.4333125E4,7.115703E3,9.038281E2,0E0,3.9473746E4,4.313132E4,7.6296035E3,0E0,0E0,0E0,3.6829754E4,1.8670617E4,2.1622562E4,1.3272891E4,5.5902344E3,2.1087246E3,2.4230033E4,0E0,7.035082E3,6.0768633E3,1.5885446E4,4.919783E3,1.4256672E4,1.4027803E4,3.9821992E3,3.7392188E2,1.0000471E3,0E0,0E0,0E0,0E0,0E0,0E0,0E0,0E0,0E0,0E0,0E0,0E0,0E0,0E0,0E0,0E0,0E0,0E0,0E0,0E0,0E0],"parents":[2147483647,0,0,1,1,3,3,4,4,5,5,6,6,7,7,9,9,10,10,11,11,15,15,16,16,17,17,18,18,19,19,20,20,21,21,23,23,24,24,25,25,26,26,27,27,28,28,29,29,30,30,31,31],"right_children":[2,4,-1,6,8,10,12,14,-1,16,18,20,-1,-1,-1,22,24,26,28,30,32,34,-1,36,38,40,42,44,46,48,50,52,-1,-1,-1,-1,-1,-1,-1,-1,-1,-1,-1,-1,-1,-1,-1,-1,-1,-1,-1,-1,-1],"split_conditions":[1E0,2E0,9.806525E0,1E0,2E0,1E0,1E0,1E0,7.7644724E-1,3E0,1E0,2E0,3.0754406E0,5.064074E0,1.2153772E0,3E0,1E0,2E0,1E0,1E0,1E0,1E0,-3.9621675E0,1E0,1E0,1E0,3E0,2E0,3E0,2E0,3E0,2E0,2.51143E0,-2.682856E-1,1.9312838E0,1.6810764E0,-6.249125E-1,2.2665856E-2,-2.5348663E0,-8.706292E-1,1.1199745E0,2.2695704E0,-1.3159943E0,-3.0384665E0,-1.5232377E0,-8.323265E-1,3.7188594E0,2.2459362E0,-4.276831E-1,9.1409147E-1,2.4482763E-1,5.233775E-1,-3.659309E-1],"split_indices":[1344,1502,0,1721,1028,1928,1,980,0,980,1985,1928,0,0,0,561,1911,1142,1120,1722,1265,1730,0,566,893,629,1277,1199,1985,1985,1199,1786,0,0,0,0,0,0,0,0,0,0,0,0,0,0,0,0,0,0,0,0,0],"split_type":[0,0,0,0,0,0,0,0,0,0,0,0,0,0,0,0,0,0,0,0,0,0,0,0,0,0,0,0,0,0,0,0,0,0,0,0,0,0,0,0,0,0,0,0,0,0,0,0,0,0,0,0,0],"sum_hessian":[7.81E2,7.77E2,4E0,7.61E2,1.6E1,6.63E2,9.8E1,1.4E1,2E0,4.03E2,2.6E2,9E1,8E0,1.3E1,1E0,3E2,1.03E2,1.06E2,1.54E2,5E1,4E1,2.91E2,9E0,8.6E1,1.7E1,9E1,1.6E1,1.31E2,2.3E1,3.6E1,1.4E1,3.9E1,1E0,2.71E2,2E1,8.1E1,5E0,1.3E1,4E0,7.1E1,1.9E1,1.5E1,1E0,3.4E1,9.7E1,2.1E1,2E0,3.4E1,2E0,6E0,8E0,3.4E1,5E0],"tree_param":{"num_deleted":"0","num_feature":"2048","num_nodes":"53","size_leaf_vector":"1"}},{"base_weights":[5.357766E-1,-1.201217E1,1.6656872E1,-1.3492718E1,3.7879918E0,1.2997092E1,5.318957E1,-1.6212477E1,2.0047768E1,2.8498655E1,4.8465323E0,2.8967682E1,8.912692E1,-2.3264698E1,-4.2096486E0,5.475128E1,4.7526474E0,2.1867126E1,6.526325E1,9.126653E0,-1.8845585E1,8.396358E0,3.3175726E0,9.7754906E1,1.9126542E0,-2.1417353E1,-5.8580784E1,-2.3760132E1,1.2292704E1,2.3774006E0,4.2140765E0,-7.355853E0,1.864687E0,1.8823698E1,3.9216056E0,1.7290592E0,4.479139E0,1.028412E1,-2.0285394E0,-2.106688E1,1.560123E0,3.6973379E0,1.8742731E0,3.231868E0,7.4711347E0,-2.264425E1,2.3006277E1,-3.872257E0,-6.3059056E-1,-1.2777861E1,-5.660132E1,2.0807255E1,-3.398168E-1,-1.8778676E-1,4.1026437E-1,-1.2928796E1,8.604968E0,1.2117803E1,4.253891E1,1.1461177E1,-2.4191345E1,3.8094075E0,-2.5997295E1,6.7888975E0,-8.4903E-1,-1.5096912E0,5.235695E-1,2.230512E0,-3.6851516E-1,-9.376232E-1,3.2532043E0,-3.643211E0,-8.6929697E-1,1.0615021E0,3.16784E0,2.1335144E-1,-1.8336744E0,-9.531495E-1,4.760877E-1,5.925584E-1,1.5697414E-1,8.427709E-1,-2.6159158E0,2.7845728E0,1.5057325E-1,6.6695744E-1,4.3472104E0,-1.9597083E0,3.716096E-1,4.3516842E-1,-3.7495095E-1,-1.8007793E0,1.4251997E0,4.9425083E-1,-1.0644099E-1],"categories":[],"categories_nodes":[],"categories_segments":[],"categories_sizes":[],"default_left":[0,0,0,0,0,0,0,0,0,0,0,0,0,0,0,0,0,0,0,0,0,0,0,0,0,0,0,0,0,0,0,0,0,0,0,0,0,0,0,0,0,0,0,0,0,0,0,0,0,0,0,0,0,0,0,0,0,0,0,0,0,0,0,0,0,0,0,0,0,0,0,0,0,0,0,0,0,0,0,0,0,0,0,0,0,0,0,0,0,0,0,0,0,0,0],"id":16,"left_children":[1,3,5,7,-1,9,11,13,15,17,19,21,23,25,27,29,31,33,35,37,39,41,-1,43,-1,45,47,49,51,53,-1,55,-1,57,-1,-1,-1,59,-1,61,-1,63,-1,-1,-1,65,67,-1,-1,69,71,73,75,-1,-1,77,79,81,83,85,87,89,91,93,-1,-1,-1,-1,-1,-1,-1,-1,-1,-1,-1,-1,-1,-1,-1,-1,-1,-1,-1,-1,-1,-1,-1,-1,-1,-1,-1,-1,-1,-1,-1],"loss_changes":[1.589951E5,4.8413938E4,4.5302047E4,3.9915406E4,0E0,3.9534652E4,2.440279E4,3.3929992E4,1.7256E4,2.4903875E4,2.1162857E4,9.514057E3,3.0566562E3,1.5251344E4,4.8686418E4,6.541332E3,7.524622E3,1.0419195E4,1.9349922E3,8.817495E3,3.6439473E3,1.1095256E3,0E0,3.9055781E3,0E0,1.3710766E4,1.4013672E3,2.4163043E4,8.82701E3,8.765585E1,0E0,1.6233804E3,0E0,1.3479311E4,0E0,0E0,0E0,7.256955E3,0E0,3.9011992E3,0E0,6.809349E2,0E0,0E0,0E0,1.159025E4,2.7910227E3,0E0,0E0,8.530432E3,4.8889062E2,4.7053145E3,3.814189E3,0E0,0E0,7.445039E2,3.2930908E0,5.829125E3,1.489543E3,6.74642E3,1.4932754E3,2.2844925E2,4.300756E3,1.09805176E2,0E0,0E0,0E0,0E0,0E0,0E0,0E0,0E0,0E0,0E0,0E0,0E0,0E0,0E0,0E0,0E0,0E0,0E0,0E0,0E0,0E0,0E0,0E0,0E0,0E0,0E0,0E0,0E0,0E0,0E0,0E0],"parents":[2147483647,0,0,1,1,2,2,3,3,5,5,6,6,7,7,8,8,9,9,10,10,11,11,12,12,13,13,14,14,15,15,16,16,17,17,18,18,19,19,20,20,21,21,23,23,25,25,26,26,27,27,28,28,29,29,31,31,33,33,37,37,39,39,41,41,45,45,46,46,49,49,50,50,51,51,52,52,55,55,56,56,57,57,58,58,59,59,60,60,61,61,62,62,63,63],"right_children":[2,4,6,8,-1,10,12,14,16,18,20,22,24,26,28,30,32,34,36,38,40,42,-1,44,-1,46,48,50,52,54,-1,56,-1,58,-1,-1,-1,60,-1,62,-1,64,-1,-1,-1,66,68,-1,-1,70,72,74,76,-1,-1,78,80,82,84,86,88,90,92,94,-1,-1,-1,-1,-1,-1,-1,-1,-1,-1,-1,-1,-1,-1,-1,-1,-1,-1,-1,-1,-1,-1,-1,-1,-1,-1,-1,-1,-1,-1,-1],"split_conditions":[1E0,1E0,1E0,1E0,3.7879918E0,2E0,1E0,1E0,2E0,2E0,2E0,1E0,2E0,2E0,1E0,1E0,1E0,2E0,2E0,1E0,2E0,2E0,3.3175726E0,2E0,1.9126542E0,1E0,1E0,1E0,2E0,2E0,4.2140765E0,1E0,1.864687E0,1E0,3.9216056E0,1.7290592E0,4.479139E0,1E0,-2.0285394E0,2E0,1.560123E0,1E0,1.8742731E0,3.231868E0,7.4711347E0,2E0,1E0,-3.872257E0,-6.3059056E-1,1E0,2E0,1E0,1E0,-1.8778676E-1,4.1026437E-1,1E0,3E0,2E0,1E0,2E0,1E0,2E0,1E0,1E0,-8.4903E-1,-1.5096912E0,5.235695E-1,2.230512E0,-3.6851516E-1,-9.376232E-1,3.2532043E0,-3.643211E0,-8.6929697E-1,1.0615021E0,3.16784E0,2.1335144E-1,-1.8336744E0,-9.531495E-1,4.760877E-1,5.925584E-1,1.5697414E-1,8.427709E-1,-2.6159158E0,2.7845728E0,1.5057325E-1,6.6695744E-1,4.3472104E0,-1.9597083E0,3.716096E-1,4.3516842E-1,-3.7495095E-1,-1.8007793E0,1.4251997E0,4.9425083E-1,-1.0644099E-1],"split_indices":[1357,978,1984,885,0,992,875,344,885,294,1285,1057,775,11,875,1057,186,1342,1057,1407,157,1725,0,1357,0,1109,1535,80,1057,426,0,294,0,186,0,0,0,889,0,1357,0,978,0,0,0,1666,1057,0,0,601,861,147,56,0,0,555,875,555,305,471,555,15,978,6,0,0,0,0,0,0,0,0,0,0,0,0,0,0,0,0,0,0,0,0,0,0,0,0,0,0,0,0,0,0,0],"split_type":[0,0,0,0,0,0,0,0,0,0,0,0,0,0,0,0,0,0,0,0,0,0,0,0,0,0,0,0,0,0,0,0,0,0,0,0,0,0,0,0,0,0,0,0,0,0,0,0,0,0,0,0,0,0,0,0,0,0,0,0,0,0,0,0,0,0,0,0,0,0,0,0,0,0,0,0,0,0,0,0,0,0,0,0,0,0,0,0,0,0,0,0,0,0,0],"sum_hessian":[7.84E2,4.41E2,3.43E2,4.33E2,8E0,3.13E2,3E1,4.01E2,3.2E1,1.07E2,2.06E2,1.9E1,1.1E1,2.52E2,1.49E2,9E0,2.3E1,9.2E1,1.5E1,1.75E2,3.1E1,1.1E1,8E0,9E0,2E0,2.41E2,1.1E1,6.8E1,8.1E1,2E0,7E0,1.6E1,7E0,8.7E1,5E0,3E0,1.2E1,1.71E2,4E0,3E1,1E0,1E1,1E0,4E0,5E0,2.35E2,6E0,1E1,1E0,5.2E1,1.6E1,4.8E1,3.3E1,1E0,1E0,1.2E1,4E0,6.9E1,1.8E1,1.66E2,5E0,5E0,2.5E1,9E0,1E0,2.24E2,1.1E1,4E0,2E0,5.1E1,1E0,1.5E1,1E0,4.4E1,4E0,3E1,3E0,1.1E1,1E0,3E0,1E0,6.8E1,1E0,1.7E1,1E0,1.65E2,1E0,4E0,1E0,4E0,1E0,2.4E1,1E0,8E0,1E0],"tree_param":{"num_deleted":"0","num_feature":"2048","num_nodes":"95","size_leaf_vector":"1"}},{"base_weights":[6.489673E-1,-7.329576E0,1.44429455E1,2.6569536E0,-2.24741E1,1.1609622E1,4.8172695E1,-4.9759126E0,2.3102974E1,1.06605224E-1,-2.9900686E1,8.300698E0,4.635208E1,5.3369198E1,-2.528239E0,-7.2746186E0,3.102137E0,3.0024147E1,-7.3233757E0,5.725131E0,-3.522507E1,-3.275564E1,1.814917E1,1.6523172E1,2.7493846E-1,4.8246426E1,1.4587635E-1,5.6600914E1,-2.505886E-1,5.8595186E-1,-8.2254493E-1,-4.8057637E0,-3.5351417E0,3.2751633E1,-1.0346985E1,1.428214E0,-2.8525114E0,2.299778E0,2.4582715E0,-2.4945514E0,-2.0787284E-1,-3.449577E1,3.546782E1,1.7933568E0,3.9227295E0,4.3820043E0,2.161376E1,-1.7268001E0,3.0358677E0,3.161477E0,9.963774E-1,6.170314E1,8.82133E0,-6.0936565E0,5.1834054E0,4.103711E1,2.397583E1,6.2742615E0,-2.39665E0,4.312355E1,-1.38635645E1,-3.0324722E1,9.90849E0,-3.6292645E1,2.055962E1,2.8412187E-1,2.7608833E0,7.9609528E0,-3.8150033E-1,6.6080036E0,-8.220326E0,2.3780418E1,-5.9262085E0,-1.022091E1,5.748447E0,6.778701E1,2.498381E1,1.0558596E0,-2.3035783E-1,-4.6755505E-1,3.1390882E0,4.5291615E0,1.90645E0,1.0782268E0,2.4894342E0,7.5864714E-1,-3.5510856E-1,3.4537168E0,2.0010495E-1,-1.2328924E0,1.4074935E0,-2.161111E0,-7.227435E-1,7.6639915E-1,-1.1691228E0,-2.3876805E0,-2.0610126E-2,-1.4892296E0,3.6269774E0,1.1826551E0,-1.2622562E-1,5.210395E-1,-4.7951946E-1,-6.198248E-1,1.1042584E-2,1.3436264E0,2.9624646E0,-2.045338E-1,-5.217837E-1,-7.349936E-1,2.4068017E0,5.367546E-1,-2.4920046E0,4.4965625E0,1.7491491E0,3.6766285E-1,1.8331045E0],"categories":[],"categories_nodes":[],"categories_segments":[],"categories_sizes":[],"default_left":[0,0,0,0,0,0,0,0,0,0,0,0,0,0,0,0,0,0,0,0,0,0,0,0,0,0,0,0,0,0,0,0,0,0,0,0,0,0,0,0,0,0,0,0,0,0,0,0,0,0,0,0,0,0,0,0,0,0,0,0,0,0,0,0,0,0,0,0,0,0,0,0,0,0,0,0,0,0,0,0,0,0,0,0,0,0,0,0,0,0,0,0,0,0,0,0,0,0,0,0,0,0,0,0,0,0,0,0,0,0,0,0,0,0,0,0,0],"id":17,"left_children":[1,3,5,7,9,11,13,15,17,19,21,23,25,27,29,31,-1,33,35,37,39,41,43,45,47,49,-1,51,-1,-1,-1,53,-1,55,57,59,-1,61,-1,-1,-1,63,65,-1,67,69,71,73,-1,-1,-1,75,77,79,-1,81,83,85,-1,87,89,91,93,95,97,-1,-1,99,-1,101,103,105,107,109,111,113,115,-1,-1,-1,-1,-1,-1,-1,-1,-1,-1,-1,-1,-1,-1,-1,-1,-1,-1,-1,-1,-1,-1,-1,-1,-1,-1,-1,-1,-1,-1,-1,-1,-1,-1,-1,-1,-1,-1,-1,-1],"loss_changes":[8.64997E4,7.537785E4,2.6964113E4,4.7089543E4,3.320729E4,3.0309605E4,5.931215E3,2.8024434E4,1.7487938E4,1.0127265E4,2.1034312E4,1.6163398E4,1.8048633E3,3.9364492E3,5.0491986E2,2.5578422E4,0E0,7.7163477E3,5.4422266E3,4.9852666E3,9.2948535E2,1.7962688E4,1.2440063E3,7.3837773E3,1.2191316E4,9.1539844E2,0E0,4.0875586E3,0E0,0E0,0E0,2.3484645E4,0E0,3.5969453E3,2.5737407E3,9.5241875E3,0E0,1.0477921E4,0E0,0E0,0E0,1.4398172E4,8.8494434E2,0E0,2.513565E2,1.0922728E3,5.2128555E3,7.7417183E3,0E0,0E0,0E0,2.1041445E3,3.666914E2,1.6259987E4,0E0,8.033625E3,2.828168E3,3.509579E2,0E0,1.7761162E3,2.8091885E3,2.4571289E2,2.544689E3,9.526797E3,9.735684E3,0E0,0E0,4.7749573E2,0E0,8.6181494E2,8.816031E1,3.1784805E3,1.7756317E1,4.794676E3,8.823749E3,3.6577344E2,1.6276147E2,0E0,0E0,0E0,0E0,0E0,0E0,0E0,0E0,0E0,0E0,0E0,0E0,0E0,0E0,0E0,0E0,0E0,0E0,0E0,0E0,0E0,0E0,0E0,0E0,0E0,0E0,0E0,0E0,0E0,0E0,0E0,0E0,0E0,0E0,0E0,0E0,0E0,0E0,0E0,0E0],"parents":[2147483647,0,0,1,1,2,2,3,3,4,4,5,5,6,6,7,7,8,8,9,9,10,10,11,11,12,12,13,13,14,14,15,15,17,17,18,18,19,19,20,20,21,21,22,22,23,23,24,24,25,25,27,27,31,31,33,33,34,34,35,35,37,37,41,41,42,42,44,44,45,45,46,46,47,47,51,51,52,52,53,53,55,55,56,56,57,57,59,59,60,60,61,61,62,62,63,63,64,64,67,67,69,69,70,70,71,71,72,72,73,73,74,74,75,75,76,76],"right_children":[2,4,6,8,10,12,14,16,18,20,22,24,26,28,30,32,-1,34,36,38,40,42,44,46,48,50,-1,52,-1,-1,-1,54,-1,56,58,60,-1,62,-1,-1,-1,64,66,-1,68,70,72,74,-1,-1,-1,76,78,80,-1,82,84,86,-1,88,90,92,94,96,98,-1,-1,100,-1,102,104,106,108,110,112,114,116,-1,-1,-1,-1,-1,-1,-1,-1,-1,-1,-1,-1,-1,-1,-1,-1,-1,-1,-1,-1,-1,-1,-1,-1,-1,-1,-1,-1,-1,-1,-1,-1,-1,-1,-1,-1,-1,-1,-1,-1],"split_conditions":[1E0,1E0,2E0,3E0,1E0,1E0,3E0,1E0,1E0,1E0,1E0,1E0,1E0,2E0,1E0,3E0,3.102137E0,1E0,1E0,1E0,1E0,1E0,3E0,1E0,1E0,2E0,1.4587635E-1,3E0,-2.505886E-1,5.8595186E-1,-8.2254493E-1,2E0,-3.5351417E0,1E0,3E0,1E0,-2.8525114E0,1E0,2.4582715E0,-2.4945514E0,-2.0787284E-1,1E0,1E0,1.7933568E0,1E0,1E0,1E0,1E0,3.0358677E0,3.161477E0,9.963774E-1,2E0,1E0,1E0,5.1834054E0,3E0,1E0,1E0,-2.39665E0,1E0,1E0,1E0,2E0,1E0,1E0,2.8412187E-1,2.7608833E0,2E0,-3.8150033E-1,1E0,1E0,1E0,1E0,1E0,1E0,1E0,1E0,1.0558596E0,-2.3035783E-1,-4.6755505E-1,3.1390882E0,4.5291615E0,1.90645E0,1.0782268E0,2.4894342E0,7.5864714E-1,-3.5510856E-1,3.4537168E0,2.0010495E-1,-1.2328924E0,1.4074935E0,-2.161111E0,-7.227435E-1,7.6639915E-1,-1.1691228E0,-2.3876805E0,-2.0610126E-2,-1.4892296E0,3.6269774E0,1.1826551E0,-1.2622562E-1,5.210395E-1,-4.7951946E-1,-6.198248E-1,1.1042584E-2,1.3436264E0,2.9624646E0,-2.045338E-1,-5.217837E-1,-7.349936E-1,2.4068017E0,5.367546E-1,-2.4920046E0,4.4965625E0,1.7491491E0,3.6766285E-1,1.8331045E0],"split_indices":[1573,1928,1039,980,1866,735,1866,641,1911,58,266,980,58,1154,248,561,0,501,821,1730,1053,410,980,807,241,1160,0,1573,0,0,0,123,0,1053,1866,1152,0,807,0,0,0,1667,248,0,501,1160,916,184,0,0,0,732,1866,1639,0,1866,807,1160,0,464,867,421,310,1934,754,0,0,266,0,1911,80,641,1652,1201,464,1071,362,0,0,0,0,0,0,0,0,0,0,0,0,0,0,0,0,0,0,0,0,0,0,0,0,0,0,0,0,0,0,0,0,0,0,0,0,0,0,0,0],"split_type":[0,0,0,0,0,0,0,0,0,0,0,0,0,0,0,0,0,0,0,0,0,0,0,0,0,0,0,0,0,0,0,0,0,0,0,0,0,0,0,0,0,0,0,0,0,0,0,0,0,0,0,0,0,0,0,0,0,0,0,0,0,0,0,0,0,0,0,0,0,0,0,0,0,0,0,0,0,0,0,0,0,0,0,0,0,0,0,0,0,0,0,0,0,0,0,0,0,0,0,0,0,0,0,0,0,0,0,0,0,0,0,0,0,0,0,0,0],"sum_hessian":[7.84E2,4.97E2,2.87E2,3E2,1.97E2,2.66E2,2.1E1,2.19E2,8.1E1,4.9E1,1.48E2,2.44E2,2.2E1,1.9E1,2E0,2.11E2,8E0,6.6E1,1.5E1,4.3E1,6E0,1.4E2,8E0,1.2E2,1.24E2,2.1E1,1E0,1.8E1,1E0,1E0,1E0,2.02E2,9E0,6.2E1,4E0,1.3E1,2E0,4E1,3E0,5E0,1E0,1.37E2,3E0,4E0,4E0,3.6E1,8.4E1,1.2E2,4E0,1.9E1,2E0,1.6E1,2E0,2E2,2E0,3E1,3.2E1,3E0,1E0,3E0,1E1,7E0,3.3E1,1.33E2,4E0,1E0,2E0,3E0,1E0,3.1E1,5E0,7.8E1,6E0,5.6E1,6.4E1,1.3E1,3E0,1E0,1E0,1.96E2,4E0,6E0,2.4E1,2.4E1,8E0,2E0,1E0,2E0,1E0,9E0,1E0,5E0,2E0,3.1E1,2E0,1.26E2,7E0,2E0,2E0,1E0,2E0,2.8E1,3E0,4E0,1E0,7.3E1,5E0,4E0,2E0,5.5E1,1E0,6.1E1,3E0,1.1E1,2E0,1E0,2E0],"tree_param":{"num_deleted":"0","num_feature":"2048","num_nodes":"117","size_leaf_vector":"1"}},{"base_weights":[5.3487796E-1,-1.5638328E0,4.828024E1,-5.208165E0,1.7642683E1,5.18944E1,1.7662037E1,-1.13045435E1,5.4963946E0,1.0806989E1,3.9716854E1,3.6005444E1,5.8361988E1,9.264343E0,1.5987492E0,-1.2945289E1,5.4471283E1,-5.106233E0,1.731313E1,2.5204777E1,1.6841041E0,4.102005E1,1.4132604E-1,6.39636E-1,2.5322218E0,6.025446E1,7.57923E-1,1.4214681E0,1.0229241E0,-1.8117502E1,1.0839812E1,4.0029035E0,6.532196E-1,-1.9394215E1,1.2079499E1,2.3108727E1,1.2811015E0,3.1940659E1,-2.3633957E0,-2.999049E1,8.90778E0,1.6584866E0,2.791403E0,3.863583E0,9.9128515E-1,3.5619378E-1,-2.2317253E-1,-2.02847E1,1.5838162E1,5.2733707E0,6.097965E1,-2.8490585E1,1.1381126E1,8.044127E0,3.9177944E1,1.9513063E1,4.9306396E1,2.10979E1,-1.3102203E1,-9.892497E0,3.54058E1,9.721101E-1,-1.624702E1,-2.1376505E0,3.9769486E-1,6.875609E0,2.3144546E0,-1.3144356E0,4.099087E0,1.1296384E0,-1.9054931E-1,1.4226692E0,-8.799543E-2,7.538696E0,8.0283695E-1,-1.2037349E0,-2.7942202E0,1.1593486E0,-9.2775506E-1,3.641562E-1,2.5376227E0,7.175071E-1,2.6123815E0,1.382283E0,-2.7483183E-1,3.2887137E0,6.8745035E-1,1.6639014E0,-3.973071E-1,-1.1201397E0,1.069652E0,-7.4445677E-1,-1.8128496E-1,2.491246E0,-3.770947E-2,-1.480801E0,4.2760313E-1,5.660635E-1,-5.7950526E-1],"categories":[],"categories_nodes":[],"categories_segments":[],"categories_sizes":[],"default_left":[0,0,0,0,0,0,0,0,0,0,0,0,0,0,0,0,0,0,0,0,0,0,0,0,0,0,0,0,0,0,0,0,0,0,0,0,0,0,0,0,0,0,0,0,0,0,0,0,0,0,0,0,0,0,0,0,0,0,0,0,0,0,0,0,0,0,0,0,0,0,0,0,0,0,0,0,0,0,0,0,0,0,0,0,0,0,0,0,0,0,0,0,0,0,0,0,0,0,0],"id":18,"left_children":[1,3,5,7,9,11,13,15,17,19,21,23,25,27,-1,29,31,33,35,37,39,41,-1,-1,-1,43,-1,45,-1,47,49,-1,-1,51,53,55,57,59,61,63,65,-1,-1,-1,-1,-1,-1,67,69,71,73,75,77,79,81,83,85,87,89,91,93,-1,95,-1,-1,97,-1,-1,-1,-1,-1,-1,-1,-1,-1,-1,-1,-1,-1,-1,-1,-1,-1,-1,-1,-1,-1,-1,-1,-1,-1,-1,-1,-1,-1,-1,-1,-1,-1],"loss_changes":[7.853499E4,5.265808E4,2.7351953E3,4.130585E4,1.7677852E4,8.7878125E2,9.699988E1,4.419746E4,2.8904748E4,1.2173043E4,1.2736602E3,8.822988E2,9.2966797E2,2.0043887E2,0E0,4.8666906E4,3.5924766E3,3.0191305E4,1.009815E4,6.760543E3,1.3537954E4,2.6185156E2,0E0,0E0,0E0,3.53625E2,0E0,8.4727036E1,0E0,2.4164E4,1.9494562E4,0E0,0E0,1.9080498E4,5.8085767E3,6.5737227E3,8.827361E3,4.5540273E3,2.2463364E3,1.9280879E3,2.4947634E3,0E0,0E0,0E0,0E0,0E0,0E0,2.1957352E4,9.125884E2,7.6483594E3,1.8603865E4,6.9293203E3,3.301485E3,3.3635515E3,4.07334E1,4.6501973E3,5.936465E2,2.1597007E3,2.9498574E3,8.092407E0,4.425117E3,0E0,1.0276825E3,0E0,0E0,1.7185266E3,0E0,0E0,0E0,0E0,0E0,0E0,0E0,0E0,0E0,0E0,0E0,0E0,0E0,0E0,0E0,0E0,0E0,0E0,0E0,0E0,0E0,0E0,0E0,0E0,0E0,0E0,0E0,0E0,0E0,0E0,0E0,0E0,0E0],"parents":[2147483647,0,0,1,1,2,2,3,3,4,4,5,5,6,6,7,7,8,8,9,9,10,10,11,11,12,12,13,13,15,15,16,16,17,17,18,18,19,19,20,20,21,21,25,25,27,27,29,29,30,30,33,33,34,34,35,35,36,36,37,37,38,38,39,39,40,40,47,47,48,48,49,49,50,50,51,51,52,52,53,53,54,54,55,55,56,56,57,57,58,58,59,59,60,60,62,62,65,65],"right_children":[2,4,6,8,10,12,14,16,18,20,22,24,26,28,-1,30,32,34,36,38,40,42,-1,-1,-1,44,-1,46,-1,48,50,-1,-1,52,54,56,58,60,62,64,66,-1,-1,-1,-1,-1,-1,68,70,72,74,76,78,80,82,84,86,88,90,92,94,-1,96,-1,-1,98,-1,-1,-1,-1,-1,-1,-1,-1,-1,-1,-1,-1,-1,-1,-1,-1,-1,-1,-1,-1,-1,-1,-1,-1,-1,-1,-1,-1,-1,-1,-1,-1,-1],"split_conditions":[1E0,1E0,1E0,1E0,1E0,1E0,1E0,2E0,1E0,1E0,1E0,1E0,1E0,1E0,1.5987492E0,1E0,2E0,1E0,1E0,1E0,2E0,1E0,1.4132604E-1,6.39636E-1,2.5322218E0,1E0,7.57923E-1,1E0,1.0229241E0,2E0,3E0,4.0029035E0,6.532196E-1,1E0,1E0,1E0,1E0,3E0,2E0,1E0,2E0,1.6584866E0,2.791403E0,3.863583E0,9.9128515E-1,3.5619378E-1,-2.2317253E-1,1E0,1E0,2E0,2E0,2E0,1E0,1E0,3E0,1E0,1E0,1E0,1E0,2E0,2E0,9.721101E-1,3E0,-2.1376505E0,3.9769486E-1,3E0,2.3144546E0,-1.3144356E0,4.099087E0,1.1296384E0,-1.9054931E-1,1.4226692E0,-8.799543E-2,7.538696E0,8.0283695E-1,-1.2037349E0,-2.7942202E0,1.1593486E0,-9.2775506E-1,3.641562E-1,2.5376227E0,7.175071E-1,2.6123815E0,1.382283E0,-2.7483183E-1,3.2887137E0,6.8745035E-1,1.6639014E0,-3.973071E-1,-1.1201397E0,1.069652E0,-7.4445677E-1,-1.8128496E-1,2.491246E0,-3.770947E-2,-1.480801E0,4.2760313E-1,5.660635E-1,-5.7950526E-1],"split_indices":[1984,675,449,787,1656,184,194,1502,184,650,1049,650,1936,1951,0,1025,1028,1721,552,1549,675,650,0,0,0,114,0,257,0,276,1025,0,0,1393,2032,1393,650,1750,675,2001,1502,0,0,0,0,0,0,547,24,1025,1951,787,1624,1300,378,127,197,24,1480,89,1860,0,675,0,0,675,0,0,0,0,0,0,0,0,0,0,0,0,0,0,0,0,0,0,0,0,0,0,0,0,0,0,0,0,0,0,0,0,0],"split_type":[0,0,0,0,0,0,0,0,0,0,0,0,0,0,0,0,0,0,0,0,0,0,0,0,0,0,0,0,0,0,0,0,0,0,0,0,0,0,0,0,0,0,0,0,0,0,0,0,0,0,0,0,0,0,0,0,0,0,0,0,0,0,0,0,0,0,0,0,0,0,0,0,0,0,0,0,0,0,0,0,0,0,0,0,0,0,0,0,0,0,0,0,0,0,0,0,0,0,0],"sum_hessian":[7.82E2,7.5E2,3.2E1,6.31E2,1.19E2,2.8E1,4E0,4.02E2,2.29E2,9.2E1,2.7E1,1E1,1.8E1,3E0,1E0,3.93E2,9E0,1.21E2,1.08E2,3.5E1,5.7E1,2.6E1,1E0,2E0,8E0,1.7E1,1E0,2E0,1E0,3.23E2,7E1,7E0,2E0,6.6E1,5.5E1,7.9E1,2.9E1,2.8E1,7E0,1E1,4.7E1,7E0,1.9E1,1.6E1,1E0,1E0,1E0,3.04E2,1.9E1,6.4E1,6E0,5.1E1,1.5E1,4.9E1,6E0,7.1E1,8E0,1.2E1,1.7E1,2E0,2.6E1,3E0,4E0,9E0,1E0,4.5E1,2E0,3.02E2,2E0,1.7E1,2E0,1.7E1,4.7E1,2E0,4E0,3.4E1,1.7E1,1.2E1,3E0,4.7E1,2E0,1E0,5E0,6.4E1,7E0,7E0,1E0,1E1,2E0,1.5E1,2E0,1E0,1E0,2.3E1,3E0,3E0,1E0,4E1,5E0],"tree_param":{"num_deleted":"0","num_feature":"2048","num_nodes":"99","size_leaf_vector":"1"}},{"base_weights":[7.3964643E-1,-5.349238E-1,5.83517E1,-3.7058494E0,1.911796E1,6.412492E1,6.260523E-1,-7.405767E0,1.5589104E1,1.1988231E1,4.4635746E1,4.1303997E0,1.0913157E0,-2.538065E1,-4.46942E0,8.931227E0,3.8242123E1,6.5911136E0,3.888853E1,5.0815266E1,1.2226416E1,-3.2156815E1,2.886795E0,-3.150407E0,-3.4717247E0,3.911296E0,5.03294E1,3.9713985E1,1.3691853E-1,1.1395479E1,-3.492429E0,2.600861E0,7.731903E-2,3.6356083E1,7.225153E0,-3.1345516E-1,1.1101862E0,-3.6431458E1,-1.4593318E1,-1.6752333E1,2.4619965E1,-3.690777E0,5.1167984E0,-4.051115E0,1.4986208E1,3.4227688E0,4.3842867E-1,4.073884E1,5.355025E-1,2.1976624E1,-3.7592192E0,-1.6073917E1,1.9262709E1,3.8306293E0,2.8923304E1,-2.3902266E0,3.6292785E-1,1.4470602E0,-1.2030882E0,-2.3290968E-1,-2.002165E0,2.4928316E-1,1.9233059E0,-1.7633606E-1,-3.3018546E0,-1.2182378E0,1.3527177E-1,5.671368E-1,2.4342387E0,2.714739E0,1.4098274E0,1.5360543E0,-1.6245202E0,-4.0724954E-1,1.6099764E0,-1.2771395E0,1.5561457E0,1.2830184E0,2.7575046E-1,1.9060348E0,1.9099672E-1],"categories":[],"categories_nodes":[],"categories_segments":[],"categories_sizes":[],"default_left":[0,0,0,0,0,0,0,0,0,0,0,0,0,0,0,0,0,0,0,0,0,0,0,0,0,0,0,0,0,0,0,0,0,0,0,0,0,0,0,0,0,0,0,0,0,0,0,0,0,0,0,0,0,0,0,0,0,0,0,0,0,0,0,0,0,0,0,0,0,0,0,0,0,0,0,0,0,0,0,0,0],"id":19,"left_children":[1,3,5,7,9,11,-1,13,15,17,19,-1,-1,21,23,25,27,29,31,33,35,37,39,41,-1,43,45,47,-1,49,51,-1,-1,53,-1,-1,-1,55,57,59,61,63,-1,65,67,-1,-1,69,-1,71,73,75,77,-1,79,-1,-1,-1,-1,-1,-1,-1,-1,-1,-1,-1,-1,-1,-1,-1,-1,-1,-1,-1,-1,-1,-1,-1,-1,-1,-1],"loss_changes":[5.7674242E4,4.7993266E4,4.098535E3,4.744684E4,1.893193E4,2.9776953E2,0E0,2.92853E4,1.5796303E4,1.2084329E4,3.9850195E3,0E0,0E0,1.5033328E4,3.2227434E4,1.7259688E4,1.1862031E3,3.5278398E3,1.4245801E3,1.364577E4,5.697409E2,4.198242E3,7.24157E3,2.188707E4,0E0,6.7626187E3,1.3815234E3,3.8410938E2,0E0,7.939964E3,7.1806714E3,0E0,0E0,1.3887168E3,0E0,0E0,0E0,4.1975703E3,2.929019E3,1.6776448E3,9.0122266E2,1.9722484E4,0E0,4.373665E3,4.179172E3,0E0,0E0,1.2445703E2,0E0,4.3239863E3,1.8874185E3,3.3965444E3,8.313818E1,0E0,5.382412E2,0E0,0E0,0E0,0E0,0E0,0E0,0E0,0E0,0E0,0E0,0E0,0E0,0E0,0E0,0E0,0E0,0E0,0E0,0E0,0E0,0E0,0E0,0E0,0E0,0E0,0E0],"parents":[2147483647,0,0,1,1,2,2,3,3,4,4,5,5,7,7,8,8,9,9,10,10,13,13,14,14,15,15,16,16,17,17,18,18,19,19,20,20,21,21,22,22,23,23,25,25,26,26,27,27,29,29,30,30,33,33,37,37,38,38,39,39,40,40,41,41,43,43,44,44,47,47,49,49,50,50,51,51,52,52,54,54],"right_children":[2,4,6,8,10,12,-1,14,16,18,20,-1,-1,22,24,26,28,30,32,34,36,38,40,42,-1,44,46,48,-1,50,52,-1,-1,54,-1,-1,-1,56,58,60,62,64,-1,66,68,-1,-1,70,-1,72,74,76,78,-1,80,-1,-1,-1,-1,-1,-1,-1,-1,-1,-1,-1,-1,-1,-1,-1,-1,-1,-1,-1,-1,-1,-1,-1,-1,-1,-1],"split_conditions":[2E0,1E0,2E0,1E0,1E0,1E0,6.260523E-1,2E0,1E0,1E0,2E0,4.1303997E0,1.0913157E0,1E0,1E0,2E0,1E0,1E0,1E0,1E0,3E0,1E0,1E0,2E0,-3.4717247E0,3E0,1E0,1E0,1.3691853E-1,1E0,1E0,2.600861E0,7.731903E-2,1E0,7.225153E0,-3.1345516E-1,1.1101862E0,1E0,1E0,2E0,1E0,2E0,5.1167984E0,2E0,1E0,3.4227688E0,4.3842867E-1,1E0,5.355025E-1,1E0,1E0,1E0,1E0,3.8306293E0,1E0,-2.3902266E0,3.6292785E-1,1.4470602E0,-1.2030882E0,-2.3290968E-1,-2.002165E0,2.4928316E-1,1.9233059E0,-1.7633606E-1,-3.3018546E0,-1.2182378E0,1.3527177E-1,5.671368E-1,2.4342387E0,